svm_type c_svc
kernel_type rbf
gamma 8
nr_class 3
total_sv 60
rho 0 0 0
label 0 1 2
nr_sv 20 20 20
SV
0.03125 0.03125 0:-1 1:0.482619 2:-0.59184 3:-0.428571 4:-0.647962 5:-1 6:-1 7:-0.833333 8:-1 9:-1 10:-0.727893 11:-1 12:-0.571441 13:-0.695448 14:-0.764287 15:-0.772598 16:-1 17:-0.580177 18:-1 19:-0.755104 20:0.836715 21:-0.921429 22:-1 23:-1 24:-0.0448972 25:-0.79592 26:0.702618 27:0.541949 28:-1 29:-0.196409 30:-1 31:-0.204098 32:0.763262 33:-1 34:-0.0903904 35:-1 36:-1 37:-1 38:-0.912088 39:-1 40:-1 41:-0.964286 42:0.489771 43:-1 44:-1 45:0.030603 46:-1 47:-0.857144 48:-1 49:-0.878119 50:-1 51:-0.607146 52:0.261882 53:-1 54:-1 55:-0.59184 56:-1 57:-0.582171 58:-1 59:-0.76651 60:-1 61:-0.578388 62:-0.849051 63:-1 64:-0.163264 65:-0.816329 66:-1 67:-1 68:-0.18368 69:-1 70:-1 71:-1 72:-1 73:-0.663268 74:-1 75:0.239804 76:-1 77:-1 78:-1 79:-0.443893 80:-0.602044 81:-1 82:-1 83:-0.0714351 84:-0.393882 85:-0.780048 86:0.613451 87:-0.167349 88:-0.149667 89:-1 90:1 91:-1 92:-1 93:-1 94:-0.23469 95:-0.893708 96:-1 97:-1 98:-1 99:-0.714286 100:-0.661413 101:-0.464289 102:-0.282806 103:-0.289802 104:-1 105:-1 106:1 
0.03125 0.03125 0:-0.611133 1:0.153156 2:-0.61904 3:-0.111049 4:-0.315485 5:-1 6:-1 7:-1 8:-0.607478 9:-1 10:-1 11:1 12:-1 13:-0.40782 14:-0.947616 15:-0.823141 16:-0.383175 17:0.142869 18:-0.785701 19:-0.92857 20:0.224511 21:-1 22:-1 23:-1 24:-1 25:-1 26:-0.0067786 27:-0.0405585 28:-1 29:0.250118 30:-1 31:-0.380947 32:0.0285986 33:-1 34:-0.292521 35:-1 36:-0.57142 37:-1 38:-0.726495 39:-0.492032 40:-1 41:-0.944441 42:-1 43:0.166699 44:-1 45:-0.198465 46:-1 47:-1 48:-1 49:-0.526021 50:-1 51:-0.0833141 52:-0.0185086 53:-1 54:-1 55:-1 56:-1 57:-0.18756 58:-1 59:0.271246 60:-0.407377 61:-0.0162381 62:-0.647776 63:-1 64:0.301626 65:-0.28573 66:-0.178583 67:-0.0857093 68:-1 69:-1 70:-1 71:-0.669333 72:-1 73:-1 74:-1 75:-0.678587 76:-1 77:-0.746048 78:-0.539702 79:-0.567497 80:-1 81:-1 82:-0.746016 83:-1 84:-1 85:-0.657829 86:-0.16339 87:0.619062 88:0.488083 89:-0.92063 90:-1 91:-1 92:-0.604931 93:-1 94:-0.36508 95:-1 96:-0.492064 97:-1 98:-0.823425 99:-0.111105 100:-0.473272 101:-0.749995 102:-0.814048 103:-1 104:-1 105:-0.571423 106:-0.481445 
0.03125 0.03125 0:-1 1:-0.0602623 2:-0.85672 3:-0.665677 4:-0.485087 5:-1 6:-0.379127 7:-0.804978 8:-0.852378 9:-1 10:-0.8806 11:0.880594 12:-0.749265 13:-0.821818 14:-0.921196 15:-0.600865 16:-0.53604 17:-0.385941 18:-1 19:-0.713434 20:0.0746484 21:-0.632232 22:-1 23:-0.950534 24:-1 25:-0.7612 26:-0.252894 27:-0.639144 28:-0.719415 29:-0.529847 30:-0.689564 31:-0.844782 32:-1 33:-0.8806 34:-0.46782 35:-0.0806191 36:-0.516412 37:-1 38:-0.845698 39:-0.61792 40:-1 41:-0.937315 42:-0.782097 43:0.755194 44:-0.164193 45:-1 46:-0.653742 47:-1 48:-1 49:-0.57215 50:-0.719415 51:-0.770155 52:-0.261717 53:-0.8209 54:-0.768362 55:-0.8806 56:-0.892541 57:-0.388858 58:0.21787 59:-0.863393 60:-0.331367 61:-0.424408 62:-0.558425 63:-0.847168 64:-0.347273 65:-0.140291 66:-0.862691 67:-0.828063 68:-0.7612 69:-1 70:-0.916421 71:-0.75125 72:-1 73:-1 74:-0.732545 75:-0.758211 76:-0.80896 77:-0.61792 78:0.38507 79:-0.674642 80:-0.61195 81:-0.534358 82:-0.5224 83:-0.728365 84:-1 85:-0.227884 86:0.101355 87:-0.431626 88:0.368167 89:-0.97015 90:-1 91:-1 92:-0.900942 93:-0.2836 94:-0.73134 95:-0.129354 96:-0.71344 97:-0.979105 98:-0.33584 99:-1 100:-0.801905 101:-0.686575 102:-0.720263 103:-0.930748 104:-0.9403 105:-0.570163 106:-0.609957 
0.03125 0.03125 0:-1 1:0.153156 2:-0.882784 3:-1 4:-0.494506 5:-0.629307 6:-0.619053 7:-1 8:-0.637694 9:-1 10:-1 11:-0.538462 12:-1 13:0.202597 14:-0.927473 15:-1 16:-0.715329 17:0.205653 18:-0.802198 19:-0.89011 20:-0.434853 21:-0.887179 22:-0.802198 23:-1 24:-1 25:-1 26:0.375201 27:-0.557181 28:-1 29:-0.423059 30:-0.809526 31:-0.809526 32:0.582426 33:-1 34:-0.0204136 35:-0.435897 36:-1 37:-0.879854 38:-0.558184 39:-1 40:-1 41:-0.923077 42:-0.732603 43:-0.282046 44:-0.384611 45:-1 46:-0.575095 47:-0.948718 48:-1 49:-0.387466 50:-0.655685 51:-0.435897 52:-0.396018 53:-1 54:-1 55:-0.85348 56:-1 57:0.0499355 58:-1 59:0.00581209 60:0.367505 61:-0.899101 62:0.0837438 63:-0.953114 64:-1 65:-0.208798 66:-0.326012 67:-0.57802 68:-0.85348 69:-1 70:-0.897437 71:-1 72:-0.868133 73:-0.516484 74:-0.917949 75:-0.406585 76:-1 77:-0.765568 78:-1 79:-0.201482 80:-0.714286 81:-0.428594 82:-0.531136 83:1 84:-1 85:-0.68417 86:-0.0346809 87:-0.402195 88:0.678875 89:-1 90:-1 91:-1 92:-0.635329 93:-0.56044 94:-0.59707 95:-0.69475 96:0.054944 97:-0.948718 98:-0.510991 99:-1 100:-1 101:-0.846154 102:-0.914181 103:-0.830037 104:-0.92674 105:-0.472532 106:-0.521364 
0.03125 0.03125 0:-1 1:0.0683747 2:-0.882352 3:-1 4:-1 5:-1 6:0.147054 7:-1 8:-1 9:-1 10:-0.70588 11:-0.691174 12:-1 13:-1 14:-0.708821 15:-0.672268 16:-1 17:-0.394952 18:-0.602938 19:-0.867646 20:-0.621847 21:-0.886764 22:-0.867646 23:-1 24:-0.541169 25:-0.41176 26:-0.0798206 27:1 28:-1 29:0.158135 30:-1 31:0.147054 32:0.270607 33:-0.70588 34:0.638661 35:-1 36:-0.735292 37:-1 38:-1 39:-0.529408 40:-1 41:-1 42:-0.731618 43:-0.2794 44:-0.588229 45:-1 46:0.279413 47:-1 48:-1 49:-0.824345 50:-1 51:-1 52:-1 53:-1 54:-1 55:-0.41176 56:-1 57:-1 58:-1 59:-1 60:0.0980363 61:-0.594915 62:-0.347357 63:-1 64:-0.598032 65:-1 66:-0.492646 67:-0.576464 68:-0.70588 69:-1 70:-1 71:-1 72:-1 73:-0.272052 74:-1 75:-0.404398 76:-1 77:-0.529408 78:-1 79:-1 80:-0.808822 81:-1 82:-1 83:-0.330876 84:-1 85:-1 86:-0.224899 87:1 88:-0.693625 89:-1 90:-1 91:-1 92:-1 93:-1 94:0.54412 95:-0.693625 96:-1 97:-1 98:-1 99:-0.588229 100:-1 101:-0.845587 102:-0.65546 103:-0.829411 104:-0.85294 105:-0.470588 106:-0.0392003 
0.03125 0.03125 0:-1 1:-0.42341 2:0.142864 3:-1 4:-1 5:-1 6:-1 7:-1 8:-1 9:0.333324 10:-1 11:-1 12:1 13:-1 14:-0.685714 15:-1 16:-1 17:-1 18:-1 19:-1 20:-1 21:-1 22:-1 23:-1 24:-1 25:0.90476 26:-1 27:-1 28:-1 29:-1 30:-1 31:0.238105 32:-1 33:-0.0476 34:-1 35:-1 36:-1 37:-1 38:-1 39:-1 40:-1 41:-1 42:-1 43:-1 44:0.333371 45:-1 46:-1 47:-1 48:-1 49:-1 50:-1 51:-1 52:-1 53:-0.5238 54:-1 55:-1 56:-1 57:-1 58:-1 59:-1 60:-1 61:-1 62:-1 63:-0.390477 64:-1 65:-0.142847 66:-1 67:0.371465 68:-1 69:-0.52381 70:-1 71:-1 72:-0.142847 73:-1 74:0.600004 75:0.928638 76:-1 77:-1 78:-1 79:-1 80:-1 81:-1 82:0.523808 83:-1 84:-1 85:-1 86:-1 87:-1 88:-1 89:-0.7619 90:-1 91:0.238105 92:-1 93:-1 94:-0.04762 95:-1 96:-1 97:-1 98:0.0595408 99:0.333371 100:-1 101:1 102:0.115643 103:-1 104:-1 105:-1 106:-1 
0.03125 0.03125 0:-1 1:0.345361 2:-0.822224 3:0.244442 4:-0.1375 5:-0.437737 6:-0.711091 7:-0.909251 8:-0.725229 9:-1 10:-1 11:-0.183351 12:-1 13:-0.668378 14:-0.981665 15:-0.876181 16:-0.784107 17:0.0285738 18:-1 19:-0.950002 20:1 21:-0.914438 22:-1 23:-1 24:-0.480016 25:-1 26:0.390468 27:-0.580241 28:-0.738873 29:-0.124902 30:-0.855546 31:-0.855546 32:0.200017 33:-0.77776 34:-0.38095 35:-0.714792 36:-0.899992 37:-1 38:-0.282043 39:-1 40:-1 41:-0.980554 42:-1 43:-0.727754 44:-0.688862 45:-0.438845 46:-0.838877 47:-0.961108 48:-1 49:-0.270052 50:-1 51:-1 52:0.832062 53:-1 54:-0.892213 55:-0.77776 56:-1 57:0.592408 58:-1 59:0.271246 60:0.0370343 61:0.377278 62:-0.178154 63:-1 64:-0.696269 65:-0.5 66:-0.936106 67:-0.360002 68:-0.77776 69:-0.94444 70:-0.922216 71:-0.7685 72:-1 73:-0.725011 74:-1 75:0.574987 76:-1 77:-1 78:-0.677745 79:-0.697204 80:-0.783342 81:-1 82:-0.822208 83:0.2639 84:0.319988 85:-0.161752 86:-0.121541 87:-0.319996 88:0.0416667 89:-1 90:-0.637005 91:-0.855546 92:-0.262561 93:-0.77776 94:-0.47222 95:-1 96:-0.466656 97:-1 98:-0.629183 99:-1 100:-0.815642 101:-0.941662 102:-0.739686 103:-0.5489 104:-1 105:-1 106:-0.274076 
0.03125 0.03125 0:-1 1:-1 2:-1 3:-1 4:-1 5:-1 6:0.575737 7:-1 8:-1 9:-1 10:-1 11:-1 12:-1 13:-1 14:1 15:-1 16:-1 17:-1 18:-1 19:1 20:-1 21:-1 22:0.0909091 23:-1 24:-1 25:0.21212 26:-1 27:-1 28:-1 29:-1 30:-1 31:0.575737 32:-1 33:-1 34:-1 35:-1 36:-1 37:-1 38:-1 39:-1 40:-1 41:-0.363636 42:-1 43:-1 44:-1 45:-1 46:-1 47:-1 48:-1 49:-1 50:-1 51:-1 52:-1 53:-1 54:-1 55:-1 56:-1 57:-1 58:-1 59:-1 60:-1 61:-1 62:-0.103448 63:-0.612122 64:-1 65:-1 66:-1 67:-1 68:-1 69:-1 70:-1 71:-1 72:-1 73:1 74:-1 75:-1 76:-1 77:-1 78:-1 79:-1 80:-1 81:-1 82:-1 83:-1 84:-1 85:-1 86:-1 87:-1 88:-1 89:-1 90:-1 91:-1 92:-1 93:-1 94:-1 95:-1 96:-1 97:-1 98:-1 99:-1 100:-1 101:-1 102:-1 103:-1 104:-1 105:-1 106:-1 
0.03125 0.03125 0:-1 1:-0.360617 2:-0.524752 3:-0.260682 4:-0.544565 5:0.00197338 6:-1 7:-0.892199 8:-0.510348 9:-1 10:-1 11:-0.029715 12:-0.722806 13:-0.605999 14:-0.97822 15:-0.411615 16:-1 17:-0.321059 18:-0.9109 19:-0.920794 20:-0.151328 21:-0.94918 22:-1 23:-0.835927 24:-1 25:-0.47196 26:-0.449327 27:-0.202037 28:-0.379518 29:-0.480233 30:-1 31:-0.313556 32:-0.144548 33:-1 34:-0.411615 35:-1 36:-0.881182 37:-1 38:-0.886259 39:-0.577536 40:-1 41:-0.884486 42:-1 43:-0.0296942 44:-0.630341 45:1 46:-0.234347 47:-1 48:-1 49:-0.684643 50:-1 51:0.270655 52:-0.183726 53:-1 54:-0.743879 55:-0.868 56:-1 57:-0.324284 58:-0.551204 59:0.0572514 60:0.478534 61:1 62:-0.0235654 63:-1 64:-0.45874 65:-0.643567 66:-0.089113 67:0.710904 68:-0.73596 69:-1 70:-0.815173 71:-1 72:-0.881201 73:-1 74:-1 75:-0.465311 76:-1 77:-0.155136 78:-0.617192 79:-0.640307 80:-1 81:0.0297169 82:-0.683168 83:-0.6997 84:-1 85:-0.715425 86:-0.826069 87:-0.102313 88:0.237625 89:-0.93399 90:-0.568797 91:-1 92:-0.342869 93:-0.60396 94:-0.66997 95:-0.93125 96:-0.471936 97:-1 98:-0.412558 99:-0.815199 100:-0.561934 101:-1 102:-0.458754 103:-0.846857 104:-1 105:-0.524768 106:-0.568731 
0.03125 0.03125 0:-1 1:0.431813 2:-0.753216 3:-0.424203 4:-0.556571 5:0.82108 6:-1 7:-0.916013 8:-0.491457 9:-0.856053 10:-0.96572 11:-0.136227 12:-0.78404 13:-0.309476 14:-1 15:-0.770859 16:-0.600466 17:-0.365411 18:-0.930583 19:-1 20:-0.206768 21:-0.76247 22:-0.953722 23:-0.829596 24:0.122898 25:-0.17736 26:0.394056 27:-0.766925 28:-0.275086 29:-1 30:-0.86631 31:-0.86631 32:-0.333679 33:-0.89716 34:-0.770859 35:-1 36:-0.907462 37:-0.831376 38:-0.468463 39:-0.670976 40:-1 41:-0.928019 42:-1 43:-0.74804 44:-1 45:0.557822 46:-0.701824 47:-0.964006 48:-0.929726 49:-0.14024 50:-0.516755 51:-1 52:0.271611 53:-0.89718 54:-0.401544 55:-0.79436 56:-0.907445 57:1 58:-1 59:1 60:0.151646 61:0.132976 62:-0.543662 63:-0.967091 64:-0.718956 65:-0.907445 66:-0.881758 67:-0.259662 68:-0.89716 69:-1 70:-1 71:-0.357333 72:-0.907445 73:-0.745504 74:-0.884842 75:-0.583573 76:-0.835456 77:-1 78:-0.701757 79:0.400948 80:-0.53213 81:-1 82:-1 83:0.637547 84:0.526938 85:-0.778367 86:-0.593528 87:-0.790232 88:-0.464458 89:-1 90:-1 91:-1 92:0.962103 93:-1 94:-0.87147 95:-1 96:-0.670944 97:-0.982003 98:-0.656817 99:-1 100:-0.317583 101:-0.784057 102:-0.939765 103:-0.463245 104:-0.89718 105:-1 106:-0.160264 
0.03125 0.03125 0:-1 1:-0.815133 2:-0.877856 3:-1 4:-0.736627 5:-1 6:-0.206126 7:-0.750621 8:-1 9:-1 10:-0.59288 11:-1 12:-1 13:-0.544337 14:-0.697706 15:-0.659743 16:-0.406722 17:-1 18:-1 19:-0.816796 20:-0.214842 21:-1 22:-1 23:-1 24:-1 25:-0.69464 26:0.592158 27:-0.0771881 28:-0.282418 29:-1 30:-0.603037 31:-0.603037 32:-1 33:-1 34:-0.319531 35:-0.608121 36:-0.862588 37:-1 38:-0.86846 39:-1 40:-1 41:-0.946562 42:0.114481 43:0.496178 44:-0.145041 45:-1 46:-0.11452 47:-0.893124 48:-1 49:-0.635289 50:-1 51:-1 52:0.258667 53:-1 54:-0.703799 55:0.52672 56:-1 57:-1 58:-1 59:-1 60:-1 61:-1 62:-0.548307 63:-1 64:0.669209 65:-0.725178 66:-0.824419 67:-1 68:-0.38932 69:-0.92366 70:-0.786249 71:-1 72:-0.450392 73:-0.748078 74:-1 75:-0.381637 76:-1 77:-0.511424 78:-1 79:-1 80:-0.603058 81:-1 82:-0.755712 83:-1 84:-0.0930799 85:-1 86:-1 87:0.245821 88:-0.0457917 89:-1 90:-1 91:-1 92:-0.746665 93:0.22136 94:-0.38931 95:-0.840958 96:-0.755712 97:-0.893131 98:-1 99:-1 100:-1 101:-0.679393 102:0.609587 103:-0.645806 104:-0.84732 105:-0.725178 106:0.496211 
0.03125 0.03125 0:-1 1:0.658647 2:-0.671232 3:0.5343 4:-0.527384 5:-1 6:-1 7:-1 8:-0.661284 9:-1 10:-1 11:-0.712342 12:-1 13:0.0221459 14:-0.909587 15:-1 16:-0.467729 17:-0.436383 18:-0.815077 19:-0.876712 20:0.408985 21:-0.894525 22:-1 23:-0.886503 24:-0.572619 25:-0.45204 26:1 27:-0.171996 28:-1 29:-1 30:-0.643856 31:-0.287661 32:0.775359 33:-1 34:-1 35:-1 36:-1 37:-1 38:-0.881986 39:-1 40:-1 41:-1 42:1 43:-1 44:-1 45:-1 46:-0.602761 47:-1 48:-1 49:-0.836385 50:-1 51:-0.472626 52:-0.435344 53:-1 54:-0.734257 55:-0.17808 56:-0.753438 57:-0.71955 58:-1 59:-1 60:-1 61:-0.622653 62:-1 63:-1 64:0.497718 65:-1 66:-0.842474 67:-1 68:-0.45204 69:-1 70:-1 71:0.141583 72:-1 73:-0.321915 74:-1 75:-0.445223 76:-1 77:-0.561664 78:-0.205499 79:-1 80:-1 81:0.0684034 82:-0.561632 83:-1 84:-1 85:-0.114158 86:0.443999 87:-0.0684764 88:0.426958 89:-1 90:-1 91:-1 92:-1 93:-0.72604 94:-0.38356 95:-0.714604 96:-0.780832 97:-0.952057 98:-1 99:-0.23285 100:-1 101:-0.712321 102:0.444228 103:-0.841103 104:-0.86302 105:-0.50684 106:-1 
0.03125 0.03125 0:-0.416699 1:0.225224 2:-0.952384 3:-0.666685 4:-0.383933 5:-0.397662 6:-0.6905 7:-0.902783 8:0.324695 9:-0.916672 10:-0.801587 11:0.125013 12:-1 13:-0.64468 14:-0.862502 15:-1 16:-0.537439 17:-0.142869 18:-0.919648 19:-0.714286 20:0.377562 21:-0.95417 22:-0.946432 23:-0.950684 24:-1 25:-0.76192 26:-0.0067786 27:-0.370376 28:-0.720261 29:-0.531265 30:-0.380947 31:-1 32:0.285727 33:-0.88096 34:-0.0714477 35:-1 36:-0.892864 37:-0.804776 38:-0.897442 39:-0.047616 40:-1 41:-0.958336 42:-0.674094 43:-1 44:-1 45:-0.398849 46:-0.654786 47:-0.874994 48:-0.837313 49:-0.431206 50:-0.720261 51:-0.0833141 52:0.717548 53:-0.88096 54:-1 55:-0.5238 56:-1 57:-0.63438 58:-1 59:-1 60:-0.555589 61:-0.918024 62:-0.559727 63:-1 64:-0.349187 65:-0.892865 66:-0.520844 67:-0.314268 68:-0.76192 69:-0.97024 70:-0.833345 71:-0.752 72:-0.892865 73:-0.607135 74:-1 75:0.687497 76:-1 77:-1 78:-0.654776 79:-0.675623 80:-0.767846 81:-1 82:-1 83:-0.729184 84:0.0607663 85:-0.486765 86:-0.843146 87:-0.433339 88:0.612083 89:-0.91071 90:-0.611133 91:-1 92:-0.70369 93:-0.88096 94:-0.58333 95:-0.0699375 96:-0.142848 97:-0.979168 98:-1 99:-1 100:-1 101:-0.875008 102:-0.511913 103:-0.723804 104:-1 105:-0.678559 106:-0.416634 
0.03125 0.03125 0:-1 1:0.278282 2:-1 3:-0.671501 4:-0.494126 5:-0.703183 6:-1 7:-0.904188 8:-0.564897 9:-1 10:-1 11:-0.384153 12:-0.50735 13:-0.649903 14:-0.980642 15:-0.215769 16:-1 17:-0.155417 18:-1 19:-0.947212 20:0.50819 21:-1 22:-1 23:-1 24:-0.634021 25:-1 26:-0.388341 27:-0.556848 28:-1 29:-1 30:-0.847486 31:-1 32:-0.493261 33:-0.88268 34:-0.47718 35:-0.69893 36:-0.947206 37:-1 38:-0.646285 39:-0.24928 40:-0.841618 41:-0.91789 42:-1 43:-0.425225 44:-0.343115 45:0.777194 46:0.0205029 47:-0.91789 48:-1 49:-0.159327 50:-0.724303 51:-0.548395 52:0.450596 53:-1 54:-0.886199 55:-0.7654 56:-1 57:-0.279528 58:-0.601115 59:0.0736351 60:0.313746 61:0.292465 62:0.474963 63:-0.924928 64:-0.679377 65:-0.155447 66:-0.865106 67:-0.662174 68:-0.5308 69:-0.97067 70:-0.917876 71:-0.755583 72:-1 73:-0.709666 74:-1 75:0.900288 76:-0.812288 77:-0.812288 78:-0.319645 79:-0.68031 80:-0.771252 81:-1 82:-0.906144 83:0.0674311 84:-0.303237 85:-0.11502 86:0.391082 87:-0.202328 88:-0.51125 89:-1 90:-0.233634 91:-1 92:-0.318776 93:-0.41348 94:-0.67742 95:-0.938896 96:-0.530784 97:-0.979469 98:-0.478017 99:-1 100:-0.610777 101:-0.876835 102:-0.725183 103:-0.455729 104:-1 105:-0.683275 106:0.149549 
0.03125 0.03125 0:-1 1:-1 2:-0.2 3:-1 4:-1 5:-1 6:-1 7:-1 8:-1 9:-1 10:0.333333 11:-1 12:-1 13:-1 14:-1 15:-1 16:-1 17:-1 18:-1 19:-0.399999 20:-1 21:-0.229999 22:-0.0999991 23:-1 24:-1 25:1 26:-1 27:-1 28:-1 29:-1 30:-1 31:-1 32:-1 33:1 34:-1 35:-1 36:-1 37:-1 38:-1 39:-1 40:-1 41:-0.299999 42:-1 43:-1 44:-1 45:-1 46:-1 47:-1 48:-1 49:-1 50:-1 51:-1 52:-1 53:1 54:-1 55:1 56:0.799986 57:-1 58:-1 59:-1 60:-1 61:-1 62:-1 63:-1 64:-1 65:0.799986 66:-1 67:-1 68:-1 69:-1 70:-1 71:-1 72:0.799986 73:-1 74:0.119996 75:-1 76:-1 77:-1 78:-1 79:-1 80:-1 81:-1 82:-1 83:-1 84:-1 85:-1 86:-1 87:-1 88:-1 89:-1 90:-1 91:-1 92:-1 93:-1 94:-1 95:-1 96:-1 97:-1 98:-1 99:-1 100:-1 101:-1 102:-1 103:-1 104:1 105:-1 106:-1 
0.03125 0.03125 0:-1 1:-1 2:-1 3:-1 4:-1 5:-1 6:-1 7:-1 8:-1 9:-1 10:-1 11:-1 12:-1 13:-1 14:0.320001 15:-1 16:-1 17:-1 18:-1 19:0.200001 20:-1 21:-1 22:-1 23:-1 24:-1 25:-1 26:-1 27:-1 28:-1 29:-1 30:-1 31:-1 32:-1 33:-1 34:-1 35:-1 36:-1 37:-1 38:-1 39:-1 40:-1 41:-1 42:-1 43:-1 44:-1 45:-1 46:-1 47:-1 48:-1 49:-1 50:-1 51:-1 52:-1 53:-1 54:-1 55:-1 56:-1 57:-1 58:-1 59:-1 60:-1 61:-1 62:-1 63:-1 64:-1 65:-1 66:-1 67:-1 68:-1 69:1 70:-1 71:-1 72:-1 73:-1 74:-1 75:-1 76:-1 77:-1 78:-1 79:-1 80:-1 81:-1 82:-1 83:-1 84:-1 85:-1 86:-1 87:-1 88:-1 89:1 90:-1 91:-1 92:-1 93:-1 94:1 95:-1 96:-1 97:-1 98:-1 99:-1 100:-1 101:-1 102:-1 103:-1 104:-1 105:-1 106:-1 
0.03125 0.03125 0:-1 1:-0.349889 2:-0.892624 3:-1 4:-0.76847 5:-1 6:-0.651032 7:-0.780772 8:-0.668109 9:-0.624158 10:-1 11:-1 12:-0.436287 13:-0.399075 14:-1 15:-0.40172 16:-1 17:0.104524 18:-1 19:-1 20:0.0354599 21:-1 22:-1 23:-0.888789 24:-1 25:-0.73156 26:-0.720054 27:0.216997 28:-1 29:-1 30:-1 31:-0.651032 32:-0.420166 33:-0.73156 34:-0.700883 35:-0.655502 36:-0.637588 37:-0.779881 38:-1 39:-0.570496 40:-1 41:-1 42:-1 43:-1 44:-0.248306 45:-1 46:0.946292 47:-0.906046 48:-0.633106 49:0.122299 50:-1 51:0.033572 52:0.106641 53:-0.86578 54:0.0416327 55:-1 56:-0.516776 57:-0.725201 58:-1 59:-0.692874 60:-1 61:-0.815142 62:-0.205728 63:-0.914099 64:-1 65:-0.516776 66:0.0805341 67:-0.22683 68:-1 69:-0.79866 70:-0.624158 71:-1 72:-0.516776 73:-1 74:-0.699326 75:-1 76:-1 77:-0.570496 78:-0.221507 79:-0.268516 80:-0.825514 81:-1 82:-0.570464 83:-1 84:0.594654 85:0.735989 86:-0.646287 87:-0.0872445 88:-0.161083 89:-1 90:-1 91:-1 92:-0.554556 93:-0.19464 94:-0.79866 95:-0.720354 96:-0.355712 97:-1 98:0.194642 99:-1 100:-0.554634 101:-0.577186 102:-1 103:-0.688587 104:-1 105:-0.275182 106:-0.561544 
0.03125 0.03125 0:-1 1:-0.711705 2:-0.936512 3:-1 4:-1 5:-1 6:-0.587281 7:-0.870378 8:-0.803764 9:-0.888897 10:-0.894173 11:-0.333333 12:-0.666695 13:-0.52625 14:-0.895238 15:-0.823141 16:-0.0748009 17:-0.346938 18:-0.785701 19:-0.904762 20:0.224511 21:-0.938893 22:-1 23:-0.802718 24:-0.257121 25:-1 26:-0.172343 27:-0.160481 28:-1 29:-1 30:-0.793666 31:-0.587281 32:0.0285986 33:-1 34:0.238099 35:-0.592567 36:-0.78571 37:-0.349219 38:-0.794867 39:0.015872 40:-1 41:-0.944441 42:-0.710302 43:-1 44:-1 45:0.603272 46:-0.769858 47:-1 48:-0.457681 49:-0.336415 50:0.119049 51:-1 52:0.635764 53:-0.7619 54:-1 55:-0.20636 56:-0.857153 57:-0.674999 58:-0.460356 59:-0.0919866 60:-0.111103 61:-0.890699 62:-0.295552 63:-1 64:-1 66:-0.908737 67:-1 68:-0.5238 69:-0.92063 70:-0.777765 71:-0.669333 72:-0.71427 73:-0.607135 74:-1 75:-0.357094 76:-0.746048 77:-0.746048 78:-0.539702 79:0.297618 80:-0.69047 81:-0.381016 82:-0.873024 83:-1 84:-1 85:-0.315701 86:-0.16339 87:-0.676182 88:0.653458 89:-0.96032 90:-0.481511 91:-0.793666 92:-0.341574 93:-0.84128 94:-0.72222 95:-0.669312 96:-0.365088 97:-1 98:-0.293654 99:-0.77779 100:-0.209941 101:-0.499989 102:-0.628119 103:-0.723804 104:-0.92064 105:-0.71427 106:-0.740755 
0.03125 0.03125 0:-1 1:-0.910981 2:-0.882352 3:-0.176457 4:-0.873178 5:0.116126 6:-0.80885 7:-0.879916 8:1 9:-1 10:-0.460787 11:-0.382347 12:-1 13:-1 14:-1 15:-0.344536 16:1 17:-0.697476 18:-0.205875 19:-0.933826 20:-0.621847 21:-0.773527 22:-1 23:-0.756301 24:-0.770616 25:-0.55884 26:-0.693274 27:-0.888902 28:0.0367063 29:0.158135 30:-0.617649 31:-0.0441475 32:-1 33:-0.55884 34:-0.672268 35:-0.0563897 36:-0.933832 37:-0.879428 38:-1 39:-0.058816 40:-1 41:-0.922797 42:-0.731618 43:-0.639749 44:-0.382371 45:-1 46:0.0661485 47:-0.845594 48:-0.899523 49:-0.912185 50:-0.654463 51:-0.150766 52:-1 53:-0.85294 54:-1 55:-0.55884 56:-1 57:-1 59:-1 60:-1 61:-1 62:-0.891241 63:-1 64:-1 65:0.323529 66:-0.15441 67:-0.788261 68:-1 69:-0.92647 70:-0.897073 71:-0.693667 72:-0.470588 73:-0.757351 74:-1 75:-0.70224 76:-1 77:-1 78:-1 79:-1 80:-0.713246 81:-1 82:-0.764704 83:-0.330876 84:-0.126463 85:-0.52453 86:-0.4187 87:-0.799997 88:-0.234083 89:-0.96324 90:-0.519665 91:-1 92:-0.878012 93:0.32352 94:-0.59559 95:-0.540438 96:1 97:-0.974268 98:-0.345586 99:-0.794142 100:0.219896 101:-1 102:-0.31092 103:-0.744128 104:-1 105:0.72057 106:-1 
0.03125 0.03125 0:-1 1:-1 2:-1 3:-1 4:-1 5:-1 6:0.299984 7:-1 8:-1 9:-1 10:1 11:-1 12:-1 13:-1 14:-1 15:0.114281 16:-1 17:-1 18:-1 19:0.350001 20:-1 21:-1 22:-1 23:-0.171431 24:-1 25:-1 26:-1 27:-1 28:-1 29:-1 30:0.299984 31:0.299984 32:-1 33:-1 34:-1 35:-1 36:-1 37:-1 38:-1 39:-1 40:-1 41:-0.474999 42:-1 43:-1 44:0.400011 45:-1 46:-1 47:-1 48:-1 49:-1 50:-1 51:-1 52:-1 53:-1 54:-1 55:-1 56:-1 57:-1 58:-1 59:-1 60:-1 61:-1 62:-0.260344 63:-1 64:-1 65:-1 66:-1 67:-1 68:1 69:-1 70:-1 71:-1 72:-0.100007 73:-1 74:-1 75:-1 76:-1 77:-1 78:-1 79:-1 80:-1 81:-1 82:-1 83:-1 84:-1 85:-1 86:-1 87:-1 88:-1 89:-1 90:-1 91:-1 92:-1 93:1 94:-1 95:-1 96:-1 97:-0.299999 98:-1 99:0.400011 100:-1 101:-1 102:0.171427 103:-1 104:-1 105:0.799986 106:-1 
-0.03125 0.03125 0:-1 1:-1 2:-1 3:-1 4:-1 5:-1 6:-1 7:-1 8:-1 9:1 10:-1 11:-1 12:-1 13:-1 14:-1 15:-1 16:-1 17:-1 18:0.928585 19:-1 20:-1 21:-1 22:-1 23:-1 24:-1 25:-1 26:-1 27:-1 28:-1 29:-1 30:-1 31:-1 32:-1 33:-1 34:-1 35:-1 36:-1 37:-1 38:-1 39:-1 40:-1 41:1 42:-1 43:-1 44:-1 45:-1 46:-1 47:1 48:-1 49:-1 50:-1 51:-1 52:-1 53:-1 54:-1 55:-1 56:-1 57:-1 58:-1 59:-1 60:-1 61:-1 62:-1 63:-1 64:-1 65:-1 66:-1 67:-1 68:-1 69:-1 70:1 71:-1 72:-1 73:-1 74:-1 75:-1 76:-1 77:-1 78:-1 79:-1 80:-1 81:-1 82:-1 83:-1 84:-1 85:-1 86:-1 87:-1 88:-1 89:-1 90:-1 91:-1 92:-1 93:-1 94:-1 95:-1 96:-1 97:1 98:-1 99:-1 100:-1 101:-1 102:-1 103:-1 104:0.42858 105:-1 106:-1 
-0.03125 0.03125 0:-1 1:0.0570657 2:-0.746032 3:-1 4:-0.726173 5:-0.196782 6:-0.793666 7:-0.6111 8:-0.803764 9:-0.888897 10:-1 11:0.666688 12:-0.666695 13:0.0659305 14:-1 15:-0.46938 16:-0.691626 17:-0.183683 18:-0.892864 19:-1 20:0.632647 21:-1 22:-0.928576 23:-1 24:-0.504727 25:-0.68252 26:-0.0067786 27:-0.760125 28:-1 29:-1 30:-1 31:-1 32:0.0285986 33:-0.84128 34:-0.823141 35:-0.796309 36:-0.714286 37:-0.609518 38:-0.658123 39:-1 40:-1 41:-0.972224 42:-1 43:-0.611133 44:-0.77779 45:-1 46:-0.539657 47:-0.888882 48:-0.674598 49:-0.146833 50:0.865019 51:-0.694464 52:-0.672864 53:-0.68254 54:0.231754 55:-1 56:-0.71427 57:-0.51252 58:-1 59:-0.0919866 60:-0.407377 61:-0.125539 62:0.174071 63:-0.847616 64:-1 65:-0.142847 66:-1 67:-0.771442 68:-1 69:-0.88095 70:-1 71:-0.338583 72:-0.857153 73:-1 74:-0.466658 75:-0.035681 76:-0.746048 77:-1 78:-0.539702 79:-1 80:-0.793638 81:-0.381016 82:-0.746016 83:0.444444 84:-1 85:0.710769 86:-0.16339 87:-0.784112 88:-0.338625 89:-0.92063 90:-1 91:-0.587281 92:-0.604931 93:-0.68252 94:-0.80159 95:-0.834646 96:-0.746016 97:-1 98:0.236116 99:-1 100:-0.736669 101:-0.916672 102:-1 103:-0.447609 104:-1 105:-1 106:-0.740755 
-0.03125 0.03125 0:-0.5196 1:0.0683747 2:-0.450976 3:-1 4:-0.830881 5:-0.503921 6:0.0196038 7:-0.679733 8:-0.757573 9:-0.588234 10:-1 11:-0.176463 12:-0.58824 13:-0.414774 14:-1 15:-0.563024 16:-1 17:0.411779 18:-1 19:-1 20:0.260511 21:-0.924509 22:-0.911764 23:-0.918767 24:-0.388225 25:-0.80392 26:-0.182063 27:-0.407398 28:-1 29:-1 30:-1 31:-1 32:-0.576464 33:-0.60784 34:-1 35:-1 36:-0.823528 37:-0.517646 38:-0.915534 39:-0.686272 40:-0.735292 41:-0.965686 42:-1 43:-0.5196 44:-0.450972 45:-1 46:-0.147058 47:-0.931372 48:-0.598037 49:-0.64869 50:-1 51:0.132363 52:0.212416 53:-0.60784 54:-0.809801 55:-0.80392 56:-0.647059 57:0.00362386 58:1 59:-0.326987 60:-1 61:-1 62:-0.419873 63:-0.686272 64:-0.732021 65:-0.470588 66:-0.887255 67:-0.717643 68:-0.60784 69:-0.80392 70:-1 71:0.2255 72:-0.823529 73:-0.838234 74:-0.231369 75:0.191203 76:-0.686272 77:-0.686272 78:-1 79:-1 80:-0.745096 81:0.529366 82:-1 83:-1 84:-1 85:0.267977 86:-1 87:-0.73333 88:0.02125 89:-0.95098 90:-1 91:-0.745099 92:-0.349306 93:-0.41176 94:-0.80392 95:-0.693625 96:-0.843136 97:-1 98:-0.345586 99:-1 100:-0.0240568 101:-0.794116 102:-0.65546 103:-0.772547 104:-1 105:-0.823529 106:-0.359467 
-0.03125 0.03125 0:-0.371815 1:-0.844774 2:-1 3:-1 4:-1 5:-1 6:-0.666684 7:-0.790605 8:-0.682995 9:-0.820521 10:-0.65812 11:-1 12:-1 13:-0.808685 14:-0.830769 15:1 16:-0.501846 17:-0.736274 18:-0.307692 19:-0.615382 20:-1 21:-0.901286 22:-1 23:-0.893777 24:-1 25:-0.48716 26:-0.73261 27:-1 28:0.80768 29:0.00960781 30:-1 31:-0.666684 32:-1 33:-0.7436 34:1 35:0.316239 36:-0.88462 37:-0.789753 38:-1 39:-0.58976 40:-1 41:-0.865383 42:-0.766037 43:-1 44:-0.641037 45:-1 46:0.11539 47:-1 48:-0.824794 49:-1 50:-0.397471 51:-0.012782 52:-1 53:-0.74358 54:-1 55:-1 56:-1 57:-1 58:0.743642 59:-1 60:-1 61:-0.823433 62:-1 63:-0.917952 64:-0.649583 65:-0.0769314 66:-0.705119 67:-1 68:-0.23076 69:-1 70:-1 71:-1 72:-0.769242 73:-0.576907 74:-1 75:-1 76:-1 77:-0.58976 78:-1 79:-1 80:-0.83334 81:-1 82:-0.589728 83:-0.416689 84:-0.238491 85:-0.723659 86:-1 87:-0.476914 88:0.068375 89:-0.9359 90:-1 91:-0.666684 92:-1 93:-0.7436 94:-0.29487 95:0.602563 96:0.025632 97:-0.95513 98:-0.429468 99:-1 100:0.701629 101:-0.86539 102:-0.699623 103:-0.851288 104:-0.74358 105:-0.30769 106:-0.58121 
-0.03125 0.03125 0:-1 1:0.269757 2:-0.94008 3:-1 4:-1 5:-0.241917 6:-0.415735 7:-1 8:-0.259118 9:-1 10:-0.750307 11:-0.213465 12:-1 13:-0.664647 14:-0.901125 15:-0.165315 16:-1 17:0.0786448 18:-0.898885 19:-0.887638 20:-0.0368999 21:-0.942327 22:-0.93259 23:-0.93794 24:-0.76631 25:-1 26:-0.531296 27:-0.207658 28:-0.647977 29:-0.410143 30:-0.805262 31:-0.610473 32:-0.67643 33:-1 34:0.335488 35:-0.615462 36:-0.730342 37:-1 38:-1 39:-1 40:-0.79777 41:-0.921348 42:-0.58989 43:-0.632987 44:-0.370779 45:-1 46:-0.348317 47:-0.895126 48:-1 49:-0.731585 50:-1 51:-0.134827 52:-0.382415 53:-0.85018 54:-0.709347 55:-0.55056 56:-1 57:-1 58:-0.490684 59:-1 60:-1 61:-0.793656 62:-0.77837 63:-1 64:-0.385759 65:0.348297 66:-0.741573 67:-0.784287 68:-0.70036 69:-0.88764 70:-0.790253 71:-0.687917 72:-1 73:-0.629212 74:-1 75:-0.0898708 76:-1 77:-0.76032 78:-1 79:-0.591803 80:-0.90263 81:0.168552 82:-0.640448 83:-0.318318 84:-0.555094 85:-0.192663 86:-0.802614 87:-0.490623 88:0.872667 89:-0.96255 90:-1 91:-1 92:-0.254264 93:-0.8502 94:-0.51311 95:-0.219729 96:-0.520608 97:-0.868911 98:1 99:-0.790278 100:0.242791 101:-0.842689 102:-0.736757 103:-0.826209 104:-1 105:-1 106:-0.265909 
-0.03125 0.03125 0:0.256468 1:-0.37907 2:-0.589744 3:-1 4:-0.778855 5:-1 6:-1 7:0.0470077 8:-1 9:-0.461535 10:-1 11:-0.461517 12:-1 13:-1 14:-1 15:0.428552 16:-1 17:-1 18:-0.82693 19:-1 20:-0.340636 21:-1 22:-0.88462 23:-1 24:1 25:-1 26:0.871811 27:-0.418792 28:-0.397471 29:0.00960781 30:-1 31:-1 32:-1 33:-0.7436 34:-0.142851 35:-0.341855 36:-0.88462 37:-0.158981 38:-1 39:-0.58976 40:-1 41:-1 42:-1 43:-0.371815 44:-1 45:-1 46:0.858945 47:-0.91026 48:-0.474355 49:-0.693721 50:-0.397471 51:-1 52:-0.471536 53:-0.35898 54:-1 55:-0.48716 56:-0.538448 57:-1 58:-1 59:-1 60:-0.521392 61:-0.823433 62:-0.431027 63:-0.425638 64:-1 65:-0.30769 66:-0.705119 67:-0.630782 68:-1 69:-0.80769 70:-1 71:0.602583 72:-1 73:-0.576907 74:-0.28206 75:-1 76:-0.58976 77:-1 78:-1 79:-0.301324 80:-0.499993 81:1 82:-1 83:-1 84:-1 85:-0.723659 86:-0.662151 87:-0.302561 88:-0.465792 89:-0.9359 90:-1 91:-0.333316 92:-1 93:-0.23076 94:-0.80769 95:-0.866458 96:-0.589728 97:-1 98:-0.429468 99:-1 100:-0.574609 101:-0.596149 102:-0.0988918 103:-0.702553 104:-1 105:-0.538448 106:-1 
-0.03125 0.03125 0:-1 1:-0.266173 2:-0.838384 3:-1 4:-0.535354 5:-0.659262 6:-0.824918 7:-0.450052 8:-0.833486 9:-0.717174 10:-1 11:0.555556 12:-1 13:-0.497538 14:-1 15:-0.249643 16:-0.476666 17:-0.0303018 18:-0.909091 19:-1 20:-0.134202 21:-0.948148 22:-0.939394 23:-0.888408 24:-0.789897 25:-0.73064 26:0.123621 27:-0.796482 28:-0.683508 29:-0.46968 30:-1 31:-0.824918 32:-1 33:-1 34:-0.549786 35:-1 36:-0.939394 37:-0.337379 38:-0.825951 39:-0.784512 40:-0.818182 41:-0.929293 42:-1 43:-0.340063 44:-0.434339 45:-0.319867 46:0.366992 47:-0.952862 48:-0.539845 49:-0.436963 50:-1 51:-1 52:-0.444825 53:-0.3266 54:-0.477438 55:-0.59596 56:-0.757578 57:0.240833 58:-1 59:-0.0754657 60:-0.7486 61:-0.629016 62:-0.00383142 63:-0.870707 64:-1 65:-0.0303118 66:-0.845119 67:-0.0302978 68:-0.86532 69:-0.86532 70:-1 71:-1 72:-0.878789 73:-0.777778 74:-0.547477 75:0.0909238 76:-0.569024 77:-1 78:-1 79:-0.266009 80:-0.649832 81:-0.474768 82:-0.46128 83:-0.0808081 84:1 85:-0.419383 86:-0.290149 87:-0.908417 88:-0.719417 89:-0.93266 90:-1 91:-0.124591 92:-0.329594 93:-0.3266 94:-0.86532 95:-1 96:-0.245792 97:-1 98:-1 99:-1 100:-0.106215 101:-0.929293 102:-0.921116 103:-0.218857 104:-1 105:-0.757578 106:-0.340063 
-0.03125 0.03125 0:-1 1:-0.80857 2:-0.936752 3:0.328107 4:-1 5:1 6:-0.383391 7:-0.612636 8:0.368314 9:-0.889317 10:-0.578387 11:-0.335979 12:-1 13:-1 14:-0.97391 15:0.0570066 16:-0.692792 17:-0.674765 18:-0.679834 19:-0.881422 20:-0.796703 21:-0.695649 22:-0.928846 23:-0.803497 24:-0.753331 25:-0.84188 26:-1 27:-0.283275 28:-0.628425 29:-0.377382 30:-0.794446 31:-0.794446 32:-1 33:-1 34:-0.471474 35:-0.59421 36:-0.644266 37:-1 38:-1 39:-0.49408 40:-1 41:-0.88933 42:-1 43:0.549392 44:-0.77863 45:0.596808 46:-0.312241 47:-1 48:-1 49:-0.905567 50:-1 51:-0.0869331 52:0.629333 53:-0.8419 54:-1 55:-0.20948 56:-1 57:-1 58:-1 59:-1 60:-0.704846 61:-1 62:-0.883046 63:-0.898816 64:-0.783901 65:0.280618 66:0.272721 67:-0.772306 68:-0.52568 69:-1 70:-0.889317 71:-1 72:-0.146267 73:-0.34782 74:-1 75:-0.679802 76:-1 77:-0.49408 78:-0.541442 79:-1 80:-0.486161 81:-0.383355 82:-0.367584 83:-0.640277 84:-0.530383 85:-0.659208 86:-0.791651 87:-0.247426 88:0.646917 89:-0.88142 90:-0.483471 91:-0.794446 92:-0.868819 93:-0.3676 94:-0.72332 95:-0.752958 96:-0.620544 97:-0.916994 98:-0.12055 99:-1 100:-0.21306 101:-0.750982 102:-0.814797 103:-0.724895 104:-0.8419 105:0.280618 106:-1 
-0.03125 0.03125 0:0.171305 1:-0.324656 2:-0.362544 3:-1 4:-0.725104 5:-1 6:-1 7:-0.47942 8:-0.802972 9:-0.665346 10:-0.94688 11:-0.665344 12:-0.665351 13:-0.762185 14:-0.973706 15:-0.644856 16:-1 17:-0.344346 18:-1 19:-1 20:-0.180437 21:-0.938646 22:-0.928288 23:-1 24:-0.502792 25:-1 26:-0.00285744 27:-0.397969 28:-0.251022 29:-1 30:-1 31:-0.792834 32:-1 33:-0.84064 34:-0.467285 35:-0.795488 36:-0.856576 37:-0.477303 38:-0.725409 39:-1 40:-0.784864 41:-0.972112 42:-1 43:0.171305 44:-0.330683 45:-1 46:0.386422 47:-0.888448 48:-0.673313 49:-0.42896 50:-1 51:-0.693232 52:-0.0146337 53:-0.52192 54:-0.227098 55:-0.36256 56:-0.569731 57:-0.0211903 58:-1 59:-0.0883712 60:-0.107594 61:-0.890259 62:-0.292771 63:-0.745024 64:-1 65:0.147419 66:-0.816737 67:-0.54104 68:-0.52192 69:-0.8008 70:-1 71:-1 72:-1 73:-0.868528 74:-0.643035 75:0.936252 76:-0.745024 77:-1 78:-1 79:-1 80:-0.585664 81:-0.37852 82:-0.745024 83:-0.274911 84:-1 85:0.0305225 86:-0.16007 87:-0.241442 88:0.162 89:-0.92032 90:-0.47942 91:-0.792834 92:-0.603372 93:-0.36256 94:-0.88048 95:-0.917 96:-1 97:-1 98:0.0637237 99:-1 100:-0.206822 101:-0.832672 102:-0.906661 103:-0.537857 104:-1 105:-1 106:-0.73971 
-0.03125 0.03125 0:-1 1:-0.409364 2:-0.80488 3:-1 4:-0.579272 5:-1 6:-1 7:-0.203254 8:-0.396899 9:-0.317084 10:-1 11:-0.487809 12:0.0243595 13:-1 14:-1 15:-1 16:-1 17:-1 18:-1 19:-1 20:-0.37283 21:-1 22:-1 23:-1 24:-1 25:-0.5122 26:-1 27:-0.631437 28:-1 29:0.920775 30:-1 31:-0.365868 32:-1 33:-0.5122 34:0.630638 35:-1 36:-0.78049 37:1 38:-1 39:-1 40:-1 41:-1 42:-1 43:-1 44:-1 45:-1 46:-1 47:-1 48:1 49:-0.708675 50:0.146308 51:-1 52:-1 53:-0.7561 54:-1 55:-0.0244 56:-0.560984 57:-1 58:-1 59:-1 60:-1 61:-1 62:-1 63:-0.219507 64:1 65:-1 66:-1 67:-1 68:-1 69:-0.63415 70:-1 71:0.01625 72:-1 73:-0.597565 74:0.365858 75:-1 76:-1 77:-1 78:-1 79:0.329228 80:-1 81:-1 82:-1 83:-1 84:-1 85:-1 86:-1 87:0.326823 88:-0.491875 89:-0.7561 90:-1 91:-0.365868 92:-0.595308 93:-1 94:-0.14634 95:-1 96:-1 97:-1 98:-1 99:-1 100:-1 101:-0.743905 102:1 103:-1 104:-1 105:-1 106:-0.203254 
-0.03125 0.03125 0:-1 1:-1 2:-1 3:-1 4:-1 5:-1 6:-0.0370236 7:0.209885 8:-1 9:-1 10:-0.259253 11:-1 12:-1 13:-1 14:-1 15:-0.174585 16:-1 17:-1 18:1 19:-1 20:-1 21:0.140741 22:-1 23:-0.693115 24:-1 25:-1 26:-1 27:-1 28:0.740753 29:-1 30:-1 31:-1 32:-1 33:-1 34:-1 35:-1 36:-0.666658 37:-1 38:-1 39:0.185216 40:1 41:0.814815 42:-1 43:-1 44:-1 45:-1 46:0.0740945 47:-0.481481 48:-1 49:-1 50:-1 51:-1 52:-1 53:-0.25926 54:-1 55:-1 56:-1 57:-1 58:-1 59:-1 60:-1 61:-1 62:-1 63:-1 64:-1 65:-1 66:-1 67:-1 68:-1 69:-1 70:-1 71:-1 72:-0.333321 73:-1 74:-1 75:-1 76:-1 77:-1 78:-1 79:-1 80:-0.037037 81:-1 82:-1 83:-1 84:-1 85:-1 86:-1 87:-1 88:-1 89:-1 90:-1 91:-0.0370236 92:-1 93:-1 94:-1 95:-1 96:-1 97:-0.351848 98:-1 99:-1 100:0.228988 101:-1 102:-1 103:0.288898 104:-1 105:-0.333321 106:-1 
-0.03125 0.03125 0:-1 1:-0.692501 2:-0.9492 3:0.0666965 4:-0.890462 5:-0.678693 6:-0.504758 7:-0.792598 8:0.883979 9:-1 10:-0.915347 11:-0.733342 12:-1 13:-1 14:-0.706669 15:-0.575504 16:0.233573 17:-1 18:-0.742852 19:-0.695236 20:0.632647 21:-0.755556 22:-0.94285 23:-0.947386 24:-0.405697 25:-0.61904 26:-0.735155 27:-0.808118 28:-0.403205 29:1 30:-1 31:-1 32:-0.451443 33:-1 34:0.131975 35:-0.674084 36:-0.885718 37:-1 38:-1 39:0.422208 40:-1 41:-0.911114 42:-0.652377 43:-1 44:-0.288906 45:-1 46:-0.815851 47:-0.95555 48:-1 49:-0.924153 50:-0.701556 51:-0.022253 52:-0.738241 53:-1 54:-1 55:0.26984 56:-1 57:-1 58:-0.568203 59:-1 60:-1 61:-1 62:-1 63:-0.95936 64:-0.826432 65:-0.428577 66:0.0222064 67:-1 68:-0.23808 69:-1 70:-1 71:-0.470917 72:-0.885701 73:-1 74:-0.857783 75:0.800008 76:-1 77:-1 78:-1 79:-0.307973 80:-0.752376 81:-1 82:-0.796832 83:-1 84:-0.62281 85:-0.726289 86:-0.498024 87:-0.309198 88:0.587292 89:-1 90:-1 91:-0.834902 92:-1 93:-0.74604 94:-0.55556 95:-0.470896 96:0.21904 97:-0.933332 98:-0.717471 99:-1 100:-0.578657 101:-0.599992 102:0.115643 103:-0.41079 104:-1 105:0.142847 106:-0.37776 
-0.03125 0.03125 0:-1 1:-0.80627 2:-0.872 3:-1 4:-1 5:-1 6:-0.16801 7:-0.738665 8:-0.604362 9:-1 10:-0.786667 11:-1 12:-1 13:-1 14:-1 15:-1 16:-0.378279 17:-0.670856 18:-0.784 19:-0.183999 20:-0.588573 21:-0.260799 22:-1 23:-0.867429 24:-0.500796 25:-1 26:-1 27:-0.516441 28:-0.248014 29:-1 30:-1 31:-1 32:-0.308796 33:-1 34:-0.64343 35:-1 36:-0.856 37:-1 38:-1 39:-1 40:-1 41:-0.888 42:-1 43:0.568013 44:-0.551996 45:-1 46:-0.536003 47:-0.888 48:-1 49:-1 50:-1 51:-1 52:0.319098 53:-1 54:-1 55:-0.36 56:-1 57:-1 58:-1 59:-1 60:-1 61:-1 62:-1 63:-1 64:-0.125325 65:-0.712002 66:-0.0800051 67:-1 68:-1 69:-1 70:-1 71:1 72:-1 73:-0.736 74:-1 75:-1 76:-1 77:-1 78:-1 79:-0.128018 80:0.040001 81:-1 82:-0.744 83:-0.271999 84:-1 85:-0.655113 86:-1 87:-0.564798 88:1 89:-1 90:-1 91:-1 92:-1 93:-1 94:-0.04 95:1 96:-0.488 97:-0.888 98:-1 99:-0.551996 100:-0.469091 101:-0.832 102:-0.250287 103:-0.6288 104:-0.84 105:-0.136007 106:-0.477329 
-0.03125 0.03125 0:-1 1:-1 2:0.103456 3:-1 4:-1 5:-1 6:-1 7:-0.436789 8:-0.14735 9:-0.0344818 10:-0.540227 11:-1 12:-1 13:-1 14:-1 15:-1 16:-1 17:-1 18:-0.534493 19:-1 20:-1 21:-0.734488 22:-1 23:1 24:0.0758479 25:-1 26:-1 27:-1 28:-1 29:-1 30:-1 31:-1 32:-1 33:-0.31036 34:-1 35:-0.114961 36:-0.689662 37:-1 38:-1 39:-1 40:-1 41:-1 42:-1 43:-1 44:-1 45:-1 46:1 47:-1 48:-1 49:-1 50:-1 51:0.327558 52:-1 53:-0.31034 54:-1 55:-1 56:-1 57:-1 58:-1 59:-1 60:-1 61:-1 62:-1 63:-0.779315 64:-1 65:0.241378 66:0.586209 67:-1 68:-1 69:-1 70:-1 71:-1 72:-1 73:0.13794 74:-1 75:-1 76:-1 77:0.103424 78:1 79:-1 80:0.793118 81:-1 82:0.103456 83:-1 84:-1 85:-1 86:-1 87:-1 88:-1 89:-1 90:-1 91:-1 92:-0.427856 93:-1 94:-0.65517 95:-1 96:-1 97:-1 98:-0.232779 99:-1 100:0.144175 101:-1 102:-0.596069 103:1 104:-0.31034 105:-1 106:-1 
-0.03125 0.03125 0:-1 1:-0.56757 2:-0.142864 3:1 4:-1 5:-1 6:-1 7:-1 8:-1 9:-1 10:-1 11:-1 12:-1 13:-1 14:-1 15:-1 16:-1 17:-1 18:-1 19:-1 20:-0.0816426 21:-1 22:-0.678574 23:-0.40817 24:0.114287 25:0.42856 26:-0.255105 27:-0.460318 28:0.678526 29:-1 30:-1 31:-1 32:-1 33:-1 34:-1 35:-0.0833398 36:-1 37:-1 38:-1 39:-1 40:-0.035721 41:-1 42:-1 43:0.75 44:1 45:-1 46:0.0356988 47:-1 48:-1 49:-1 50:-1 51:-1 52:-1 53:-0.64286 54:-1 55:-0.28572 56:-1 57:-1 58:-1 59:-1 60:-1 61:-1 62:-1 63:0.37143 64:-1 65:-1 66:-1 67:-1 68:-1 69:-0.64286 70:-1 71:-1 72:-0.357153 73:-0.410718 74:1 75:-1 76:0.142848 77:0.142848 78:-1 79:0.946373 80:-0.535718 81:-1 82:-1 83:-1 84:-1 85:-1 86:-1 87:-0.514287 88:-1 89:-0.82143 90:-1 91:-1 92:-1 93:-0.28572 94:0.07143 95:-0.627979 96:-1 97:-0.875001 98:-1 99:1 100:-1 101:-1 102:-1 103:-0.585718 104:-1 105:-1 106:-1 
-0.03125 0.03125 0:-0.314681 1:-0.153277 2:-0.850816 3:-1 4:-1 5:-1 6:-0.393947 7:-0.695414 8:-0.884721 9:-0.804197 10:-0.96892 11:0.174825 12:-1 13:-0.652141 14:-1 15:-0.584418 16:-0.818846 17:0.438563 18:-1 19:-1 20:-0.640361 21:-1 22:-0.958042 23:-1 24:-0.709089 25:-0.81352 26:-0.222109 27:-0.788654 28:-1 29:-0.632856 30:-1 31:-0.878789 32:-0.597201 33:-0.90676 34:-1 35:-0.162393 36:-0.832168 37:-0.694175 38:0.0844569 39:-1 40:-0.874126 41:-0.951049 42:-1 43:0.142199 44:-0.608389 45:-0.0582769 46:-0.459212 47:-0.869464 48:-0.554004 49:0.336439 50:-0.78089 51:-1 52:0.345233 53:-0.5338 54:0.627983 55:-1 56:-0.832169 57:0.145384 58:-1 59:0.280124 60:0.392369 61:-0.550539 62:1 63:-0.820979 64:-1 65:0.00698394 66:-1 67:-0.597201 68:-0.5338 69:-0.93007 70:-1 71:-1 72:-1 73:-0.769231 74:-0.6345 75:-1 76:-0.701632 77:-0.701632 78:-0.459196 79:-1 80:-0.69697 81:-0.272756 82:-0.62704 83:-0.575758 84:-0.723077 85:-0.29656 86:-0.385706 87:-1 88:-0.708625 89:-0.90676 90:-0.390827 91:-0.393947 92:0.315026 93:-0.5338 94:-0.97669 95:-1 96:-0.850816 97:-0.983683 98:-0.0664382 99:-1 100:-1 101:-1 102:-1 103:-0.513288 104:-1 105:-0.916085 106:-1 
-0.03125 0.03125 0:-0.478734 1:-0.742387 2:-1 3:-1 4:-1 5:-1 6:-0.723415 7:-0.826245 8:0.578349 9:-0.851069 10:-0.85816 11:-1 12:-1 13:-1 14:-0.964895 15:0.896639 16:-0.586633 17:-0.781161 18:-0.569161 19:-1 20:-0.452904 21:-0.508509 22:-0.808516 23:-0.559268 24:-1 25:-0.57448 26:-0.778121 27:-0.839247 28:1 29:-0.16223 30:-1 31:-1 32:-1 33:-0.14892 34:-0.051658 35:-1 36:-0.712774 37:-0.651076 38:-1 39:-0.659584 40:-1 41:-0.851061 42:-1 43:-0.478734 44:0.489388 45:-1 46:-0.6915 47:-1 48:-0.854615 49:-1 50:1 51:0.638331 52:-1 53:-1 54:-1 55:-0.78724 56:-1 57:-1 58:-1 59:-1 60:-1 61:-1 62:-0.685262 63:-0.931917 64:-0.709225 65:-0.0425517 66:-0.265959 67:-1 68:-0.36172 69:-1 70:-1 71:-1 72:-0.617035 73:-0.473418 74:-1 75:-1 76:-0.659584 77:-1 78:-1 79:-0.420241 80:-0.723412 81:-1 82:-1 83:-0.515971 84:-0.368102 85:-0.770693 86:-0.158963 87:-0.421262 88:0.551417 89:-0.89362 90:-0.304978 91:-1 92:-0.823488 93:0.06384 94:-0.84043 95:-0.778375 96:0.191488 97:-0.888301 98:-0.526611 99:-1 100:0.765006 101:-0.888301 102:0.246187 103:-0.259573 104:-0.78724 105:0.340413 106:-1 
-0.03125 0.03125 0:-1 1:-0.333495 2:-0.853216 3:0.0274962 4:-0.683497 5:-1 6:0.192658 7:-0.850157 8:-0.773151 9:-1 10:-0.755347 11:-0.807346 12:-1 13:-1 14:-0.909177 15:-0.386655 16:-1 17:-0.811277 18:-0.628453 19:-0.779818 20:0.651367 21:-0.92936 22:-1 23:-0.847974 24:-0.427537 25:-1 26:0.148107 27:0.386364 28:-1 29:-1 30:-1 31:-0.761479 32:-0.207361 33:-1 34:-1 35:-0.0580837 36:-0.917434 37:-1 38:-1 39:-0.706432 40:-0.752302 41:-0.967891 42:-1 43:-0.100941 44:-0.743126 45:-1 46:-0.467912 47:-1 48:-1 49:-0.671265 50:-1 51:-0.646801 52:-0.621831 53:-1 54:-0.822023 55:0.65136 56:-0.834869 57:-0.812174 58:-0.376173 59:-1 60:-1 61:-1 62:-1 63:-0.941286 64:-1 65:-0.669739 66:-0.8945 67:0.585335 68:-0.63304 69:-1 70:-0.871565 71:0.911333 72:-0.834869 73:-0.394482 74:-0.897252 75:-0.628448 76:-0.412864 77:-0.412864 78:-0.467896 79:1 80:-0.522926 81:-1 82:-0.853216 83:-0.582583 84:-1 85:-0.208958 86:-0.758235 87:0.247725 88:0.146792 89:-1 90:-1 91:-1 92:-0.69556 93:-0.81652 94:-0.44954 95:-0.617729 96:-0.853216 97:-0.935782 98:-0.387638 99:-1 100:-0.39118 101:-0.614671 102:-0.355177 103:-0.0422123 104:-0.90826 105:-0.669739 106:0.198811 
-0.03125 0.03125 0:-0.731478 1:-0.336546 2:-1 3:-0.693118 4:-0.90547 5:-0.722714 6:0.139722 7:-0.821018 8:0.0839495 9:-1 10:-0.780827 11:-0.309603 12:-1 13:-0.836472 14:-0.963839 15:0.221118 16:-0.78706 17:-0.661846 18:-1 19:-0.934246 20:0.268122 21:-0.746855 22:-0.95068 23:-0.909205 24:-1 25:-0.8904 26:0.142851 27:-0.0891864 28:-0.742445 29:0.726099 30:-1 31:-0.857522 32:-0.0531363 33:-1 34:0.465368 35:-0.437437 36:-0.654796 37:-0.910129 38:-1 39:-0.473984 40:-1 41:-0.884934 42:-0.6 43:-0.463054 44:-0.846559 45:-1 46:-0.523301 47:-0.96164 48:-1 49:-0.803657 50:-1 51:-1 52:0.581104 53:-1 54:-1 55:-0.45204 56:-1 57:-0.887804 58:-1 59:-0.874605 60:-1 61:-0.773603 62:-1 63:-1 64:-0.55069 65:-0.210958 66:-0.306853 67:-0.684408 68:-0.78084 69:-1 70:-1 71:-0.543417 72:-0.901361 73:-1 74:-1 75:0.109635 76:-0.82464 77:-0.82464 78:-0.682153 79:-0.402801 80:-0.430131 81:-1 82:-0.386304 83:-0.75066 84:-0.349094 85:-0.763795 86:-0.42239 87:-0.403827 88:0.598167 89:-0.91781 90:-1 91:-1 92:-0.909073 93:-0.01368 94:-0.53425 95:-0.486292 96:0.402752 97:-0.98082 98:-0.146582 99:-1 100:1 101:-0.654802 102:-0.679053 103:-0.618639 104:-0.89042 105:-0.408237 106:-0.820985 
-0.03125 0.03125 0:-1 1:-1 2:1 3:-1 4:0.0781253 5:-1 6:-1 7:-1 8:-1 9:-0.125005 10:-1 11:-1 12:-1 13:-1 14:-0.5875 15:-1 16:-1 17:-1 18:-0.156249 19:-1 20:-1 21:-1 22:-1 23:0.0357113 24:-1 25:-1 26:-1 27:-1 28:-1 29:-1 30:-1 31:-1 32:-1 33:-1 34:-1 35:0.604168 36:-1 37:-1 38:-1 39:1 40:-1 41:-1 42:-1 43:-1 44:0.750014 45:-1 46:-1 47:-1 48:-1 49:-1 50:-1 51:-1 52:-1 53:-1 54:-1 55:-1 56:-1 57:-1 58:-1 59:-1 60:-1 61:-1 62:-1 63:1 64:-1 65:-1 66:-0.281254 67:0.800012 68:0.25 69:-1 70:-1 71:-1 72:-1 73:-1 74:0.399996 75:-1 76:1 77:1 78:-1 79:-1 80:-1 81:-1 82:1 83:-1 84:-1 85:-1 86:-1 87:-1 88:-1 89:-0.6875 90:-1 91:-1 92:-1 93:0.25 94:-0.6875 95:-1 96:-1 97:-1 98:-1 99:-1 100:-1 101:-1 102:-0.267858 103:-1 104:-1 105:-1 106:-1 
-0.03125 -0.03125 0:-1 1:-1 2:-0.168832 3:-1 4:-1 5:-1 6:0.350632 7:0.696982 8:-1 9:-0.636366 10:-1 11:-1 12:-1 13:-1 14:-1 15:-0.421154 16:-1 17:-1 18:0.753247 19:-1 20:-1 21:1 22:-0.766234 23:-0.569575 24:-1 25:0.03896 26:-0.458254 27:-1 28:0.220755 29:-1 30:-1 31:-1 32:-1 33:0.03896 34:-1 35:1 36:-0.766234 37:-0.574029 38:-1 39:-1 40:0.402597 41:-0.818182 42:-1 43:0.272736 44:-1 45:-1 46:-1 47:-1 48:-0.645023 49:-1 50:0.220755 51:1 52:-1 53:0.55844 54:-1 55:-1 56:-1 57:-1 58:-1 59:-1 60:-1 61:-1 62:-1 63:-0.667533 64:-1 65:-0.0649435 66:-0.402601 67:-1 68:-1 69:-0.87013 70:-1 71:-1 72:-0.0649435 73:-1 74:-0.418184 75:0.0519623 76:-1 77:0.662336 78:-1 79:-1 80:-1 81:-1 82:-0.584416 83:-1 84:-1 85:-1 86:-1 87:-1 88:-1 89:-1 90:-1 91:-1 92:-1 93:-0.48052 94:-1 95:-1 96:-1 97:-0.909091 98:-1 99:-0.272722 100:-1 101:-0.727273 102:-0.391467 103:-1 104:-1 105:-1 106:-1 
-0.03125 -0.03125 0:-0.558506 1:0.0908232 2:-0.855856 3:-0.495436 4:-0.533767 5:-0.0882963 6:-1 7:-0.558539 8:-0.331668 9:-1 10:-1 11:0.702724 12:-0.621588 13:-0.596657 14:-1 15:-1 16:-1 17:0.111971 18:-1 19:-1 20:-0.0733626 21:-0.861261 22:-1 23:-0.776054 24:-0.718886 25:-0.8198 26:-0.436271 27:-0.3193 28:-0.576538 29:-1 30:-1 31:-0.765743 32:-0.610766 33:-0.63964 34:-0.598458 35:-0.768743 36:-0.91891 37:-0.704507 38:-0.922375 39:-1 40:-1 41:-1 42:-1 43:-0.558506 44:-0.495492 45:-1 46:-1 47:-1 48:-0.50751 49:-0.0315214 50:-0.576538 51:-0.653115 52:-0.257265 53:-0.72972 54:-1 55:-0.27928 56:-1 57:-0.446635 58:-1 59:-0.793831 60:0.681699 61:-0.255526 62:0.199456 63:-0.827021 64:-0.507503 65:-0.189178 66:-0.378382 67:0.0378434 68:-0.45944 69:-0.90991 70:-1 71:-0.24925 72:-1 73:-0.25674 74:-0.697287 75:-1 76:-0.71168 77:-0.423424 78:-0.477409 79:-0.508965 80:-0.765766 81:-1 82:-0.423424 83:-0.18018 84:-1 85:-0.4174 86:-0.525167 87:-0.877463 88:-0.24925 89:-0.95495 90:-0.411342 91:-0.531538 92:-0.850501 93:-0.8198 94:-0.90991 95:-0.906146 96:-0.567552 97:-1 98:0.00226949 99:-0.747718 100:-0.103162 101:-0.810811 102:-0.894454 103:-0.581983 104:-0.81982 105:-0.5135 106:0.471514 
-0.03125 -0.03125 0:-1 1:0.345361 2:-0.444448 3:0.55558 4:-0.520829 5:-1 6:-1 7:-0.546289 8:-1 9:-0.805569 10:-1 11:-0.708352 12:-1 13:0.658141 14:-1 15:-1 16:-0.460346 17:1 18:-1 19:-1 20:-0.285711 21:-1 22:-1 23:-1 24:-1 25:-0.72224 26:-0.710335 27:0.0493835 28:-0.347276 29:-1 30:-1 31:0.083303 32:0.799983 33:-0.44444 34:-0.690497 35:-1 36:-0.875008 37:-1 38:-0.521362 39:-1 40:-1 41:-1 42:-1 43:-0.319483 44:-1 45:-1 46:-1 47:-1 48:-0.810198 49:-0.0046225 50:-1 51:-1 52:0.14506 53:-0.86112 54:-0.730571 55:-0.72224 56:-0.5 57:0.13744 58:-0.0556236 59:-0.0465883 60:0.0370343 61:0.147741 62:-0.38363 63:-0.644442 64:-1 65:-0.5 66:-1 67:1 68:-1 69:-1 70:-1 71:0.736083 72:-0.750018 73:-1 74:-0.377775 75:-0.437528 76:-1 77:-1 78:-1 79:-1 80:-0.819456 81:-1 82:-1 83:0.2639 84:-1 85:-0.401233 86:-0.26796 87:-0.622217 88:0.157417 89:-0.93056 90:-1 91:-1 92:-0.539092 93:-1 94:-0.86111 95:-1 96:-0.555552 97:-1 98:-0.690993 99:-0.611133 100:-1 101:-0.854176 102:-1 103:-0.516675 104:-1 105:-1 106:0.3611 
-0.03125 -0.03125 0:-1 1:-0.00933538 2:-0.890912 3:-0.745422 4:-0.529558 5:-0.54005 6:-0.763663 7:-0.851529 8:0.461141 9:-1 10:-1 11:-0.236355 12:-1 13:-0.660827 14:-0.970003 15:-0.89869 16:-0.293491 17:-0.438975 18:-0.877285 19:-0.97273 20:0.63635 21:-0.930007 22:-1 23:-0.924683 24:-0.00726966 25:-0.72728 26:-0.0519554 27:-0.313135 28:-0.786342 29:-0.284139 30:-0.763663 31:-1 32:0.374546 33:-0.8182 34:-0.594803 35:-0.183337 36:-0.795448 37:-1 38:-0.843354 39:-0.418176 40:-1 41:-0.984089 42:-1 43:-0.331831 44:-0.872711 45:-1 46:-0.604559 47:-0.904548 48:-0.937872 49:-0.131305 50:-0.786342 51:-0.650035 52:-0.250505 53:-0.9091 54:-0.647267 55:-0.8182 56:-0.918173 57:0.0236881 58:-0.690874 59:0.248135 60:-0.490928 61:-0.373972 62:-0.596562 63:-0.970906 64:-0.875741 65:0.309094 66:-0.895466 67:-0.0836357 68:-0.90908 69:-0.97727 70:-0.936356 71:-0.810583 72:-0.918173 73:-0.699997 74:-0.949085 75:-0.815884 76:-0.70912 77:-1 78:0.0545792 79:-0.504605 80:-0.527268 81:-1 82:-0.709088 83:0.861407 84:0.0800119 85:-0.510088 86:-0.281294 87:-0.690897 88:0.420458 89:-0.93182 90:-0.406115 91:-0.881805 92:-0.245802 93:-0.09092 94:-0.72727 95:-1 96:-0.418176 97:-1 98:0.618192 99:-0.618189 100:0.0557786 101:-1 102:-0.840264 103:-0.683645 104:-1 105:-0.590899 106:-0.703058 
-0.03125 -0.03125 0:-1 1:-1 2:-1 3:-1 4:-1 5:-1 6:1 7:-1 8:-1 9:-1 10:0.02564 11:-1 12:-1 13:-1 14:0.269234 15:-1 16:-1 17:-1 18:0.038475 19:-1 20:-1 21:-0.407685 22:-1 23:-1 24:-1 25:-1 26:-1 27:-1 28:-1 29:-1 30:1 31:1 32:-1 33:0.53848 34:-1 35:-1 36:-1 37:-1 38:-1 39:-1 40:-1 41:-1 42:-1 43:-1 44:-1 45:-1 46:-1 47:-1 48:-1 49:-1 50:-1 51:-1 52:-1 53:-1 54:-1 55:-1 56:-1 57:-1 58:-1 59:-1 60:-1 61:-1 62:-1 63:-0.0153856 64:-1 65:-1 66:-1 67:-1 68:-1 69:-1 70:0.0769295 71:-1 72:-1 73:0.269247 74:-0.138454 75:-1 76:-1 77:-1 78:-1 79:-1 80:1 81:-1 82:-1 83:-1 84:-1 85:-1 86:-1 87:-1 88:-1 89:-0.61538 90:-1 91:-1 92:-1 93:-1 94:-1 95:-1 96:-1 97:-0.461538 98:0.711552 99:-1 100:-1 101:-1 102:-1 103:-1 104:-0.23076 105:0.384621 106:-1 
-0.03125 -0.03125 0:-0.494806 1:-0.750354 2:-0.670096 3:-1 4:-0.822152 5:-1 6:-0.463938 7:-1 8:-1 9:-1 10:-1 11:-0.567022 12:-0.566989 13:1 14:-1 15:-0.310751 16:-1 17:0.0603773 18:-0.860815 19:-1 20:-0.469824 21:-1 22:-1 23:-1 24:-1 25:-0.7938 26:0.290145 27:-1 28:-1 29:-1 30:-1 31:-1 32:-0.554605 33:-1 34:-1 35:-0.206181 36:-0.814438 37:-0.492784 38:0.0658304 39:-1 40:-1 41:-0.891752 42:-1 43:-0.494806 44:-0.422691 45:0.041309 46:-0.701012 47:-0.855674 48:-0.436416 49:-0.384312 50:-1 51:-1 52:-0.150089 53:-0.79382 54:1 55:-1 56:-0.628879 57:0.0553406 58:-0.298926 59:0.415404 60:-0.23027 61:-0.574036 62:0.525052 63:-0.934016 64:-1 65:0.48452 66:-1 67:0.187662 68:-0.7938 69:-0.89691 70:-0.71135 71:-1 72:-0.814421 73:-0.319572 74:-0.884528 75:-0.582439 76:-1 77:-1 78:0.793863 79:-1 80:-0.329901 81:-1 82:-0.83504 83:-0.530895 84:-1 85:1 86:-1 87:-0.859783 88:-0.785208 89:-0.94845 90:-0.326408 91:-1 92:-0.14472 93:-0.58764 94:-1 95:-1 96:-1 97:-1 98:0.605643 99:-1 100:-0.657896 101:-1 102:-1 103:-0.52164 104:-1 105:-1 106:-1 
-0.03125 -0.03125 0:-1 1:-1 2:-1 3:-1 4:-1 5:-1 6:-1 7:-1 8:-1 9:0.217377 10:-1 11:-1 12:-1 13:-1 14:-1 15:-1 16:-1 17:-1 18:0.760861 19:-0.739132 20:-1 21:-0.330438 22:-0.608698 23:-0.639755 24:-1 25:-1 26:-1 27:-1 28:-1 29:-1 30:-1 31:-1 32:-1 33:-1 34:-0.0310661 35:-1 36:-0.217395 37:-1 38:-1 39:-1 40:0.173907 41:-1 42:-1 43:-1 44:-1 45:-1 46:-1 47:-0.695654 48:-1 49:-1 50:-1 51:-1 52:-1 53:-1 54:-1 55:-0.13044 56:-1 57:-1 58:-1 59:-1 60:-1 61:-1 62:-0.356825 63:-1 64:-1 65:0.565195 66:1 67:-1 68:-1 69:-0.78261 70:0.826065 71:-1 72:-0.217402 73:0.434775 74:-1 75:-1 76:-1 77:0.391296 78:-1 79:-1 80:0.130429 81:-1 82:-0.304352 83:-1 84:-1 85:-1 86:-1 87:-1 88:-1 89:-0.56522 90:-1 91:-1 92:-1 93:-1 94:-1 95:-0.547104 96:0.391296 97:-0.847827 98:-1 99:-1 100:0.442678 101:-1 102:-0.490687 103:0.00868839 104:-0.56522 105:-1 106:-1 
-0.03125 -0.03125 0:-0.132693 1:0.17868 2:-0.646016 3:-0.504396 4:-0.236722 5:-0.552193 6:-0.539806 7:-1 8:-0.343537 9:-0.752201 10:-1 11:-0.6283 12:-1 13:-0.207611 14:-0.970795 15:-0.802772 16:-1 17:-0.271811 18:-1 19:-0.97345 20:0.137802 21:-0.79558 22:-1 23:-1 24:0.656672 25:-1 26:0.292022 27:-0.866266 28:-1 29:-1 30:-0.769903 31:-0.539806 32:-0.617678 33:-0.823 34:-0.802772 35:-1 36:-0.761068 37:-0.564616 38:-0.390063 39:-1 40:-1 41:-1 42:-1 43:-1 44:0.238954 45:0.787698 46:-0.743352 47:-0.93805 48:-0.758101 49:0.268427 50:-0.584058 51:0.362824 52:0.0943567 53:-0.823 54:-0.656617 55:-0.46904 56:-0.840701 57:0.0871159 58:-1 59:0.215002 60:0.321511 61:-0.63436 62:0.309132 63:-0.88672 64:-1 65:-0.362841 66:-0.796451 67:-0.490237 68:-1 69:-0.9115 70:-0.752201 71:-1 72:-1 73:-0.561958 74:-0.90088 75:-0.64157 76:-0.7168 77:-1 78:-0.486689 79:-0.517685 80:-0.539826 81:-1 82:-1 83:-0.194649 84:-0.474309 85:-0.236981 86:0.399304 87:-0.759279 88:-1 89:-0.95575 90:-1 91:-0.769903 92:-0.412657 93:-0.46904 94:-1 95:-1 96:-0.575232 97:-1 98:-1 99:-0.752198 100:-0.412682 101:-1 102:-0.896329 103:-0.589384 104:-1 105:-0.362841 106:0.156344 
-0.03125 -0.03125 0:-1 1:0.446682 2:-1 3:-0.709134 4:-0.551948 5:0.0514598 6:-0.459726 7:-0.915164 8:-0.743083 9:-0.854541 10:-1 11:0.745438 12:-1 13:-0.767438 14:-0.98286 15:-0.652701 16:-1 17:0.068647 18:-1 19:-0.96883 20:-0.0649284 21:-1 22:-1 23:-1 24:-1 25:-0.7922 26:0.300198 27:0.334502 28:-0.755887 29:0.636478 30:-1 31:-1 32:0.570935 33:-1 34:-0.768452 35:-0.466646 36:-0.766234 37:-1 38:-0.641961 39:-0.66752 40:-1 41:-0.945456 42:-0.431189 43:-0.745492 44:-0.563645 45:0.049389 46:-0.698692 47:-0.963642 48:-1 49:-0.193368 50:-0.755887 51:-0.800031 52:-0.143411 53:-1 54:-0.798432 55:-1 56:-1 57:0.276293 58:-0.646811 59:0.783031 60:-0.612111 61:0.574036 62:-0.385228 63:-0.966758 64:-0.574033 65:-0.43898 66:-0.820785 67:-0.850412 68:-0.68832 69:-1 70:-1 71:-0.783583 72:-1 73:-0.828565 74:-1 75:-0.158398 76:-0.66752 77:-1 78:-1 79:-1 80:-0.797408 81:-1 82:-0.83376 83:-0.527255 84:-1 85:-0.32816 86:0.505877 87:-0.434808 88:0.731583 89:-0.92208 90:-0.660656 91:-1 92:-0.569025 93:-0.27272 94:-0.66234 95:-0.675333 96:-0.335072 97:-1 98:-0.537647 99:-0.854567 100:-0.482895 101:-0.836368 102:-0.817445 103:-0.879476 104:-0.94806 105:-0.812981 106:-0.660591 
-0.03125 -0.03125 0:-1 1:0.494824 2:-0.604944 3:-1 4:-1 5:-1 6:-0.679008 7:-1 8:-0.694716 9:-0.827157 10:-1 11:0.037023 12:-1 13:-1 14:-0.959258 15:-1 16:-0.520264 17:-1 18:-1 19:-1 20:0.269819 21:-0.904936 22:-0.888886 23:-1 24:-1 25:-1 26:-0.742497 27:0.305912 28:-1 29:-1 30:-0.679008 31:-0.358016 32:0.0667012 33:-1 34:0.100508 35:-0.683119 36:-0.777772 37:-1 38:-1 39:-1 40:-0.666658 41:-1 42:-1 43:-1 44:-0.308618 45:-1 46:-0.641969 47:-1 48:-1 49:-0.852534 50:-1 51:-1 52:-1 53:-1 54:-1 55:-0.50616 56:-0.777774 57:-1 58:-1 59:-0.717496 60:-1 61:-1 62:-0.817364 63:-1 64:0.0123821 65:0.333321 66:0.135803 67:-0.644433 68:-1 69:-1 70:-0.481471 71:-1 72:-0.555548 73:-0.592582 74:-1 75:1 76:-1 77:-0.604928 78:-0.283916 79:-1 80:-0.839502 81:-0.0370486 82:-0.407392 83:-0.438256 84:-1 85:-1 86:-1 87:0.511132 88:0.543208 89:-0.87654 90:-1 91:-1 92:-1 93:-1 94:0.66667 95:-0.871396 96:-1 97:-0.956789 98:-0.175908 99:-0.308618 100:-1 101:-0.611101 102:0.156971 103:-0.713573 104:-1 105:-0.555548 106:-1 
-0.03125 -0.03125 0:-1 1:-0.607308 2:-0.870272 3:-0.697262 4:-0.813527 5:0.0940647 6:-0.29728 7:-0.646838 8:0.0693108 9:-0.697294 10:-0.891893 11:-0.205401 12:-1 13:-0.838681 14:-0.98216 15:0.0841505 16:0.0502429 17:0.22318 18:-1 19:-0.96757 20:-0.166037 21:-0.791884 22:-0.854056 23:-0.955208 24:-0.831331 25:-0.7838 26:-0.210804 27:0.225248 28:-1 29:-1 30:-1 31:-1 32:-0.766459 33:-0.56756 34:-0.156757 35:-0.722543 36:-0.464859 37:-1 38:-1 39:-0.65408 40:-1 41:-0.924323 42:-1 43:0.854077 44:-0.545948 45:-0.453995 46:0.254067 47:-0.92433 48:-0.926118 49:-0.677166 50:-0.745923 51:-0.583815 52:-0.554392 53:-1 54:-0.895123 55:-0.45944 56:-1 57:-0.889319 58:-1 59:-0.628941 60:-0.394609 61:-0.925544 62:-0.280344 63:-0.965402 64:-1 65:0.654043 66:-0.68918 67:-1 68:-0.67568 69:-0.97297 70:-1 71:-0.0990833 72:-0.805422 73:-0.732436 74:-0.939453 75:-0.781054 76:-0.65408 77:-0.827008 78:0.254104 79:-1 80:-0.648636 81:-1 82:-0.221632 83:-0.016198 84:-1 85:-0.184385 86:-0.572656 87:-0.0443226 88:-0.324333 89:-0.94595 90:0.0594538 91:-1 92:-0.46187 93:-0.35136 94:-0.67568 95:-0.662167 96:-0.308096 97:-1 98:0.563501 99:-0.848631 100:0.0761522 101:-0.943237 102:-0.873369 103:-0.811895 104:-1 105:-0.805422 106:-0.293676 
-0.03125 -0.03125 0:-0.0883967 1:-0.77474 2:-0.925584 3:-1 4:-0.518621 5:-0.0586449 6:-0.516302 7:-0.848066 8:-1 9:-0.348836 10:-1 11:-0.023247 12:-0.218648 13:-0.44471 14:-1 15:-0.792699 16:-1 17:0.339532 18:-1 19:-1 20:-0.521613 21:-1 22:-0.916282 23:-0.922927 24:-0.709775 25:-1 26:-1 27:-1 28:-1 29:-1 30:-0.758151 31:-0.516302 32:-0.196302 33:-1 34:-0.378098 35:-0.283745 36:-0.748846 37:-0.0846563 38:-0.118419 39:-1 40:-1 41:-0.902329 42:-1 43:-0.544198 44:-0.479084 45:-0.0604989 46:-0.460488 47:-0.934886 48:0.271323 49:1 50:-0.125629 51:0.0743821 52:-0.233109 53:-0.90698 54:0.0827998 55:-0.44188 56:-0.665131 57:-0.428659 58:-0.367469 59:-0.574299 60:-0.652729 61:-0.615657 62:0.513721 63:-0.880934 64:-1 65:0.674419 66:-0.893028 67:-1 68:-0.81396 69:-0.90698 70:-1 71:-1 72:-0.832565 73:-1 74:-1 75:-1 76:-0.702336 77:-1 78:-1 79:-1 80:-0.879074 81:-1 82:-0.40464 83:-0.153517 84:-1 85:0.00258665 86:-0.019396 87:-1 88:-1 89:-0.90698 90:-0.392264 91:-0.516302 92:-0.536968 93:-0.44188 94:-1 95:-1 96:-0.106976 97:-1 98:0.655794 99:-0.739542 100:-0.691343 101:-1 102:-1 103:-0.676291 104:-1 105:-1 106:-1 
-0.03125 -0.03125 0:1 1:-1 2:-0.673472 3:-1 4:-1 5:-1 6:-1 7:1 8:-1 9:0.714262 10:-1 11:-1 12:-1 13:-1 14:-1 15:-1 16:-1 17:-1 18:0.65305 19:-0.632656 20:-1 21:-0.685716 22:-0.632656 23:-0.661811 24:-1 25:-1 26:-1 27:-1 28:-1 29:-1 30:-1 31:-1 32:-1 33:-1 34:-0.0903904 35:-1 36:-0.632656 37:-1 38:-1 39:-1 40:0.102033 41:-1 42:-1 43:1 44:-1 45:-1 46:-1 47:-1 48:-1 49:-1 50:0.918316 51:-1 52:-1 53:-0.18368 54:-1 55:-1 56:-1 57:-1 58:-1 59:-1 60:-1 61:-1 62:-0.396204 63:-1 64:-1 65:-1 66:0.877549 67:-1 68:-1 69:-1 70:-0.428579 71:-1 72:-0.265318 73:0.346929 74:-1 75:-1 76:-1 77:-1 78:-1 79:-1 80:0.0612171 81:-1 82:-0.346944 83:-1 84:-1 85:-1 86:-1 87:-1 88:-1 89:-0.38776 90:-1 91:-1 92:-0.322758 93:-1 94:-1 95:-0.574833 96:-1 97:-0.571432 98:-0.0918476 99:-1 100:-1 101:-1 102:-0.521871 103:-0.526535 104:-0.59184 105:-0.265318 106:-1 
-0.03125 -0.03125 0:-1 1:-0.122595 2:-0.536224 3:-0.188442 4:1 5:-0.266711 6:-1 7:-0.526558 8:-0.641651 9:-0.797113 10:-1 11:-0.391293 12:-1 13:-0.783734 14:-1 15:-1 16:0.126326 17:-0.701878 18:-1 19:-1 20:0.490704 21:-0.888411 22:-1 23:-1 24:-1 25:-1 26:0.511398 27:0.0950193 28:-1 29:0.141282 30:-1 31:0.130414 32:-0.373942 33:-1 34:-0.354029 35:-0.628038 36:-1 37:-0.524633 38:-0.625419 39:-1 40:-1 41:-1 42:-1 43:-0.289886 44:0.217394 45:-1 46:-1 47:-1 48:-0.801943 49:-0.653779 50:-1 51:-0.442057 52:-1 53:-0.85508 54:-1 55:-1 56:-0.739146 57:-0.109842 58:-0.0145519 59:-1 60:0.623161 61:-0.201565 62:0.28635 63:-0.628979 64:-1 65:-0.739146 66:-0.833343 67:0.252174 68:-1 69:-0.92754 70:-0.797113 71:-0.396167 72:-0.739146 73:-1 74:-0.350716 75:0.760885 76:-1 77:-1 78:-1 79:-0.210202 80:-0.811604 81:-1 82:-0.768128 83:-1 84:-0.139174 85:-0.687619 86:-0.236125 87:-0.0144841 88:0.20775 89:-1 90:-1 91:-1 92:-0.278589 93:-1 94:-0.71014 95:-1 96:-1 97:-1 98:-0.677554 99:-1 100:0.442678 101:-0.695647 102:-0.490687 103:-0.831893 104:-1 105:-1 106:-0.526591 
-0.03125 -0.03125 0:-1 1:0.352505 2:-0.872336 3:-1 4:-0.724724 5:-0.73081 6:-0.585097 7:-1 8:-0.86845 9:-0.851069 10:-1 11:0.117033 12:-1 13:-0.841248 14:-0.982444 15:-0.762926 16:-0.793278 17:-0.562321 18:-0.92818 19:-0.904258 20:0.230991 21:-0.877123 22:-1 23:-0.95592 24:-1 25:-1 26:0.331317 27:0.125302 28:-1 29:0.256733 30:-0.861682 31:-0.861682 32:0.148955 33:-1 34:-0.881441 35:-0.590411 36:-0.712774 37:-1 38:-0.816698 39:-0.82976 40:-1 41:-0.944147 42:-0.514627 43:-0.478734 44:-0.851039 45:0.0744369 46:-0.0745005 47:-0.813828 48:-1 49:-0.491717 50:-0.749965 51:-0.590437 52:0.0963354 53:-1 54:-0.277655 55:-0.8936 56:-1 57:0.633561 58:-0.638243 59:0.825729 60:-0.205704 61:-0.267398 62:-0.213124 63:-1 64:-0.854585 65:-0.234034 66:-0.877664 67:-0.846783 68:-0.8936 69:-1 70:-1 71:-0.778333 72:-1 73:-0.824473 74:-1 75:-0.569155 76:-1 77:-1 78:-0.691433 79:-0.710066 80:-0.861706 81:-1 82:-0.574464 83:0.210119 84:-0.368102 85:-0.31208 86:0.822274 87:-0.348937 88:0.551417 89:-0.78723 90:0.0425977 91:-0.723415 92:0.235614 93:-0.36172 94:-0.68085 95:-0.944583 96:-0.574464 97:-1 98:-0.644936 99:-0.851039 100:-1 101:-0.720742 102:-0.93768 103:-0.814887 104:-0.89362 105:-1 106:0.0425323 
-0.03125 -0.03125 0:-1 1:0.109639 2:-0.784368 3:-1 4:-0.628021 5:0.0911299 6:-0.579533 7:-0.823893 8:-0.466779 9:-0.92454 10:-1 11:-0.433965 12:-1 13:-0.517296 14:-0.946632 15:-0.879881 16:-0.371595 17:-0.334595 18:-0.927235 19:-0.854446 20:0.940703 21:-0.875475 22:-0.805924 23:-0.910664 24:-0.327197 25:-0.8922 26:-0.100511 27:-0.266834 28:-0.746675 29:-0.575524 30:-0.859862 31:-1 32:0.397356 33:-0.8922 34:0.561776 35:-1 36:-0.854452 37:-0.911605 38:-0.860671 39:-1 40:-0.85447 41:-0.905661 42:-0.311324 43:-1 44:-0.849079 45:0.0889809 46:-0.531015 47:-0.96227 48:-0.852647 49:-0.42048 50:-0.746675 51:-0.377377 52:1 53:-0.89218 54:-1 55:-0.24528 56:-0.902981 57:-0.117049 58:-0.633483 59:-0.506567 60:-1 61:-0.554506 62:-0.601266 63:-0.896499 64:-0.557961 65:-0.902981 66:-0.814023 67:-0.844767 68:-0.8922 69:-1 70:-0.92454 71:-0.775417 72:-0.708906 73:-0.377355 74:-1 75:-0.345025 76:-0.82752 77:-0.309952 78:-1 79:0.468963 80:-0.509432 81:-1 82:-1 83:-0.264173 84:-1 85:-0.535178 86:-0.857956 87:-0.486788 88:0.347708 89:-0.97305 90:-1 91:-0.719671 92:-0.731665 93:-1 94:-0.46092 95:-0.326146 96:-0.309984 97:-1 98:-0.880073 99:-0.849079 100:-0.82115 101:-0.773578 102:-0.747394 103:-0.562263 104:-0.89218 105:-0.805926 106:-0.119496 
-0.03125 -0.03125 0:-1 1:-1 2:-1 3:-1 4:-1 5:-1 6:-1 7:-1 8:-1 9:-1 10:-1 11:-1 12:-1 13:-1 14:-0.63333 15:-1 16:-1 17:-1 18:-1 19:0.333333 20:-1 21:-1 22:1 23:-1 24:-1 25:-1 26:-1 27:-1 28:-1 29:-1 30:-1 31:-1 32:-1 33:-1 34:-1 35:-1 36:1 37:-1 38:-1 39:-1 40:-1 41:-0.611108 42:-1 43:-1 44:-1 45:-1 46:-1 47:-1 48:-1 49:-1 50:-1 51:-1 52:-1 53:-1 54:-1 55:-1 56:1 57:-1 58:-1 59:-1 60:-1 61:-1 62:-1 63:-1 64:-1 65:1 66:-1 67:-1 68:-1 69:-1 70:0.555559 71:-1 72:1 73:0.83335 74:-1 75:-1 76:-1 77:-1 78:-1 79:-1 80:-1 81:-1 82:-1 83:-1 84:-1 85:-1 86:-1 87:-1 88:-1 89:-1 90:-1 91:-1 92:-1 93:-1 94:-1 95:-1 96:-1 97:-0.611108 98:-1 99:-1 100:-1 101:-1 102:-1 103:0.288898 104:-1 105:1 106:-1 
-0.03125 -0.03125 0:-1 1:0.569579 2:-0.333328 3:-1 4:-0.680564 5:-0.531448 6:-1 7:-0.243826 8:-1 9:-1 10:-1 11:-0.611122 12:-0.22226 13:0.105417 14:-0.969442 15:-1 16:-1 17:-0.619057 18:-1 19:-1 20:0.190465 21:-0.928698 22:-1 23:-0.846566 24:-1 25:-1 26:0.738117 27:-0.0205815 28:-1 29:-1 30:-1 31:-0.277781 32:1 33:-1 34:-1 35:-1 36:-1 37:-1 38:0.754995 39:-1 40:-1 41:-1 42:-1 43:-1 44:-1 45:-1 46:-1 47:-1 48:-1 49:0.105959 50:-1 51:-0.64349 52:-0.236654 53:-0.72222 54:-0.820355 55:-0.25924 56:-0.666679 57:0.13744 58:-1 59:0.906869 60:-0.308669 61:-0.362376 62:0.23277 63:-0.822221 64:-0.746891 65:-1 66:-1 67:0.333333 68:0.11112 69:-1 70:-1 71:-0.228417 72:-0.833321 73:-1 74:-0.792599 75:-0.25001 76:-1 77:-1 78:0.0740676 79:-1 80:-0.638886 81:-1 82:-1 83:-1 84:-1 85:-0.600836 86:0.95209 87:-0.748154 88:-1 89:-1 90:-0.395008 91:-1 92:0.229077 93:-1 94:-1 95:-0.903542 96:-0.85184 97:-1 98:-1 99:-0.740718 100:-1 101:-0.708331 102:-1 103:-0.462967 104:-1 105:-1 106:-0.0925781 
-0.03125 -0.03125 0:-0.246178 1:-0.0685927 2:-0.75384 3:-1 4:-0.203843 5:-1 6:-1 7:-0.748726 8:0.521674 9:-0.353848 10:-1 11:-0.353829 12:0.292314 13:-1 14:-0.949233 15:-1 16:-0.402215 17:-0.367016 18:-1 19:-1 20:-0.604413 21:-1 22:-1 23:-1 24:0.440017 25:-1 26:0.283512 27:-0.767529 28:-1 29:-1 30:-1 31:-1 32:-0.335407 33:-0.69232 34:-0.314272 35:-1 36:-1 37:0.766137 38:-0.86746 39:-1 40:-0.169209 41:-1 42:-1 43:-1 44:-1 45:-1 46:-1 47:-0.892312 48:0.261538 49:-0.63247 50:-1 51:0.184646 52:-1 53:-0.84616 54:-1 55:-0.3846 56:-0.446144 57:-0.685032 58:-1 59:-1 60:-1 61:-0.364331 62:-0.772423 63:-0.606157 64:-1 65:-1 66:-0.115379 67:-0.556938 68:-1 69:-0.76923 70:-1 71:0.282083 72:-0.72309 73:-0.492294 74:-0.138454 75:-1 76:-1 77:-1 78:-1 79:-0.161589 80:-0.399997 81:-1 82:-1 83:-1 84:-1 85:-0.668391 86:0.216307 87:-0.581526 88:-0.6795 89:-0.84615 90:-1 91:1 92:-0.234187 93:-1 94:-0.53846 95:-0.83975 96:-0.261536 97:-1 98:-1 99:-1 100:-0.489531 101:-1 102:-0.819788 103:-0.643068 104:-1 105:-0.72309 106:-1 
-0.03125 -0.03125 0:-0.343787 1:1 2:-0.642864 3:-0.750014 4:-0.614945 5:-0.774123 6:-1 7:-0.781262 8:-0.889617 9:-1 10:-1 11:-0.250005 12:-1 13:0.332428 14:-1 15:-0.900517 16:-0.82654 17:-0.173479 18:-1 19:-0.959824 20:-0.311219 21:-0.965627 22:-1 23:-0.926025 24:-1 25:-0.91072 26:0.676045 27:-0.730144 28:-0.580392 29:0.0546543 30:-1 31:-0.651812 32:-0.614308 33:-0.91072 34:-1 35:-0.770848 36:-0.879472 37:-0.853582 38:1 39:-0.857152 40:-0.879472 41:-1 42:-1 43:-0.781262 44:-0.750014 45:-0.0982729 46:-1 47:-0.937504 48:-0.816977 49:-0.253473 50:0.258918 51:-0.484407 52:-0.631972 53:-0.91072 54:-0.913398 55:-0.82144 56:-0.598207 57:0.371005 58:-0.69645 59:-0.182783 60:1 61:-0.631082 62:-0.471679 63:-0.942861 64:-0.877983 65:-0.357153 66:-0.794634 67:-0.0999942 68:-0.46428 69:-0.97768 70:-0.875009 71:-0.814 72:-0.839297 73:-0.779032 74:-0.85001 75:-0.457616 76:-1 77:-1 78:-0.482165 79:-1 80:-0.709814 81:-1 82:-0.785728 83:-0.593776 84:0.0607663 85:-0.518839 86:1 87:-0.878579 88:-0.627958 89:-0.97768 90:-0.70835 91:-0.651812 92:1 93:-0.64284 94:-0.91071 95:-1 96:-0.642848 97:-1 98:-0.602661 99:-1 100:-1 101:-0.906256 102:-1 103:-0.792847 104:-1 105:-0.678559 106:-1 
